{"config": {"max_number": 55, "seq_length": 3, "d_embed": 12, "d_model": 12, "d_input": 12, "memory_length": 4, "n_ticks": 6, "n_heads": 2, "nlm_hidden": 6, "head_dim": 6, "d_sync": 78, "n_output": 55}, "weights": {"num_embed": [[0.12043610960245132, 1.1716538667678833, 0.7999329566955566, -1.6420358419418335, -0.420310378074646, -0.19820386171340942, -0.514238178730011, 0.4694114327430725, 0.7353439927101135, 0.24542494118213654, -0.10053648799657822, 1.4303399324417114], [-0.16712671518325806, -0.6809874176979065, -0.1496824473142624, 0.3857938349246979, -0.014262578450143337, -1.2907792329788208, -0.2594217360019684, -1.1940845251083374, 1.192836880683899, 0.48591452836990356, 1.6505746841430664, 0.9294546246528625], [-1.8187247514724731, 1.2724964618682861, 0.14435167610645294, 1.9819873571395874, -0.22243066132068634, 0.2057241052389145, 1.5076144933700562, 0.08785352855920792, 2.2188515663146973, -0.9246916770935059, -0.7694135904312134, 0.7620617151260376], [-0.06719008833169937, 0.6027427315711975, -0.45555102825164795, 0.04085678234696388, -0.6814669370651245, -1.6938437223434448, -0.06194034218788147, -1.4507246017456055, 0.018565986305475235, -1.1025229692459106, 1.4133403301239014, -0.2471320480108261], [-1.6002320051193237, 0.533843994140625, -0.994745135307312, -0.29008761048316956, 1.1500033140182495, 0.1050158366560936, -0.4405420422554016, -0.5406891107559204, -0.3799561858177185, -0.7679252028465271, 1.7551939487457275, 1.7405954599380493], [-0.25719889998435974, 1.4179103374481201, -1.3445005416870117, -0.08871151506900787, 0.20611457526683807, -0.6654415726661682, 0.5058122277259827, 0.5865879058837891, 0.1968350112438202, 0.28065720200538635, 1.7321014404296875, 2.3461239337921143], [-0.0608719103038311, 0.4410104751586914, -0.6461678743362427, -0.775909960269928, 0.030586039647459984, -0.5103753805160522, 0.18238523602485657, 1.4668850898742676, 0.8425500392913818, -1.128580093383789, -0.5818918347358704, 0.7292738556861877], [-1.1786690950393677, -0.3807324469089508, -0.29081058502197266, -1.8723468780517578, 0.49465498328208923, -0.24385786056518555, -1.574318289756775, 0.8091457486152649, 2.2607173919677734, 1.5107274055480957, 0.39958202838897705, 1.765150547027588], [-1.7403684854507446, -3.520233392715454, -1.8916500806808472, -0.5601956844329834, 0.7131284475326538, 0.3660351634025574, 0.7643548846244812, -0.9151676893234253, 2.1440694332122803, 0.2309059500694275, 1.5946520566940308, 0.8555094003677368], [-1.3033814430236816, -1.1343035697937012, 0.08362266421318054, -0.40435779094696045, 0.9231721758842468, 1.4442064762115479, -0.6031990051269531, -2.013158082962036, -2.9279520511627197, 0.5124005675315857, 1.5316121578216553, 0.11787024885416031], [-0.46917617321014404, 0.06883817166090012, -0.3419080674648285, 0.282295286655426, 0.8795372247695923, -1.8262057304382324, 0.8881410360336304, -2.803438901901245, 0.5240146517753601, 1.4632081985473633, 0.7425649166107178, 0.47862935066223145], [0.4907993972301483, -1.8184391260147095, -0.10250133275985718, -0.8001730442047119, -1.4563963413238525, 0.405245840549469, 0.3098427355289459, 1.2603685855865479, 1.3309308290481567, -0.2952145040035248, 0.8662608861923218, -0.986592710018158], [0.25876083970069885, 0.6967043280601501, 0.23881910741329193, 2.132378101348877, -1.646891474723816, 1.748306155204773, -0.7490406036376953, 1.142188549041748, 0.8187280297279358, 0.3203200697898865, -0.10696393996477127, 0.27389129996299744], [-1.1151379346847534, -0.7111868262290955, -0.12294887751340866, 0.9717391133308411, 0.24498067796230316, 0.4744967222213745, 2.228348731994629, 1.0207606554031372, 1.6042258739471436, -0.3023989498615265, 1.214047908782959, -1.995661973953247], [0.34933802485466003, 0.6251533031463623, -0.41591522097587585, 1.4358261823654175, -0.6988235712051392, -0.1378236711025238, 0.012810046784579754, 0.11475932598114014, 0.6156413555145264, -0.6748246550559998, -0.7185609340667725, 0.23276396095752716], [0.7344997525215149, 0.7247147560119629, 0.6886256337165833, 0.2701406478881836, 0.1653090864419937, 0.6863098740577698, 0.4143785536289215, 1.8544154167175293, 2.4960014820098877, -1.037692666053772, -0.1126818135380745, 1.5720666646957397], [-0.240793839097023, -0.8368591666221619, 0.8868513107299805, 0.09263116121292114, -0.7782683968544006, -1.7734023332595825, -0.1823715716600418, -1.6826704740524292, -0.223348468542099, 1.6853013038635254, 0.7088416814804077, -0.2690386474132538], [0.2702784240245819, 1.768958568572998, -0.32464730739593506, 2.716139554977417, 0.4851696789264679, 0.07943286001682281, 0.4319821298122406, 0.23604589700698853, -0.04750664159655571, 0.6262156963348389, 1.0786021947860718, -1.259263277053833], [-0.21158933639526367, 1.22562837600708, 0.1444569230079651, 0.9281421899795532, -2.3970589637756348, -2.6740779876708984, 2.1178793907165527, 0.18937693536281586, -0.6195909380912781, 0.9830449819564819, 1.8037837743759155, 1.1145693063735962], [-0.7100374698638916, -0.28397101163864136, 0.19108520448207855, 1.99138605594635, 1.1538631916046143, -0.9222838282585144, 0.24751809239387512, 0.7349270582199097, 0.23852640390396118, -0.1746625006198883, 0.6453064680099487, -0.08710262179374695], [-0.5649734735488892, -0.7210783362388611, 1.842413306236267, 1.3877925872802734, 0.41030383110046387, -0.18201613426208496, 0.3028527498245239, 0.7402285933494568, 1.5426194667816162, 0.2238655835390091, 0.04883497953414917, -0.9862698316574097], [-0.0615747906267643, 0.4022240936756134, 0.1624583750963211, -0.2634853422641754, -0.9094370007514954, 0.07158124446868896, -0.6206861138343811, -0.0311778225004673, -0.8736791610717773, 1.7167162895202637, 1.9396464824676514, -0.13146762549877167], [-0.7707512378692627, 0.753700852394104, -0.47118276357650757, -0.039175618439912796, 0.18113307654857635, 0.23712562024593353, -0.5579185485839844, 1.8531750440597534, -0.017699671909213066, 0.5222930908203125, 0.002545420080423355, -1.0977206230163574], [1.705526351928711, 0.22068195044994354, -0.9822372794151306, -0.7567188739776611, 0.6046979427337646, -0.6502910256385803, 2.627920150756836, -0.300286203622818, -2.427816152572632, 2.94122052192688, -0.7435713410377502, -0.7381339073181152], [-0.44608259201049805, 2.907888650894165, 1.1033674478530884, 0.2928149402141571, -0.4663640260696411, -0.4950745701789856, -1.330887794494629, 1.076381802558899, -0.24147558212280273, 0.31320521235466003, 0.936482846736908, -1.2325031757354736], [0.6968403458595276, 0.3609786033630371, -1.5294398069381714, -0.2193024754524231, 0.8225012421607971, -0.9188446402549744, -1.0835882425308228, -0.2043169140815735, -0.3032107353210449, 0.946959376335144, -0.6684542298316956, 0.012144924141466618], [0.908329427242279, -0.9460417628288269, 0.7151552438735962, -1.0869711637496948, -0.4284681975841522, -0.5367087721824646, 0.06619641929864883, 0.28490149974823, 0.9330372214317322, 1.6712223291397095, 0.7280145287513733, 2.106130838394165], [0.2768551707267761, -1.153752326965332, 1.2804349660873413, 0.5655602216720581, -1.0305947065353394, 1.9973222017288208, -0.4511442482471466, 1.258103609085083, -0.3862594664096832, 1.2456806898117065, 0.6675715446472168, -0.09274303168058395], [0.4384419023990631, -0.023356575518846512, -0.1714257448911667, -0.5836822390556335, -0.6625159382820129, -0.6859230399131775, -0.4117574393749237, -0.508605420589447, 0.42812344431877136, 0.23490579426288605, 0.5365123748779297, -0.48757144808769226], [-0.7380416989326477, 0.34386011958122253, 0.24855083227157593, 0.018140308558940887, 0.4759988486766815, 0.9958094954490662, -1.9555377960205078, 1.2996231317520142, 0.2827892005443573, 0.1891290247440338, 1.1642290353775024, 0.18230588734149933], [1.5576562881469727, 0.30149203538894653, -1.0194764137268066, -0.9397021532058716, -1.134864091873169, -0.3973851203918457, -1.0130095481872559, -1.3072630167007446, -1.977475643157959, 1.9156646728515625, -0.5051562786102295, 1.1114146709442139], [0.5097900032997131, 0.3115690350532532, -0.23692768812179565, -1.0097391605377197, 0.4268990457057953, 0.0624961219727993, -0.4735702574253082, -1.3643131256103516, -0.16026544570922852, 2.096860647201538, 1.137148380279541, 0.3413090109825134], [0.7383846044540405, -0.6484059691429138, -0.3627548813819885, 1.034011721611023, -0.743798553943634, -0.945121705532074, -1.6981672048568726, 0.7554453015327454, -1.1163700819015503, -0.2535434663295746, -0.23861131072044373, -0.3825227618217468], [-2.616210699081421, -1.1413465738296509, 1.3825221061706543, 1.7336665391921997, -0.8365966081619263, 0.17589478194713593, -1.3987736701965332, 0.7696282863616943, 1.4631128311157227, 0.41277676820755005, 1.1551501750946045, 0.5010109543800354], [0.660187304019928, -0.35512906312942505, -1.6615618467330933, 0.3548409640789032, 0.13640429079532623, -0.05385108292102814, -1.8301827907562256, -0.16558411717414856, 1.4641553163528442, -1.494807481765747, -0.4465475380420685, 1.265621542930603], [-0.44724759459495544, 0.469044029712677, 0.21688176691532135, -0.012156504206359386, -0.25623831152915955, 0.5037779808044434, -0.3772416412830353, 0.2301652580499649, -1.1340539455413818, -1.5160703659057617, 0.8569055199623108, 0.3109680414199829], [1.7998578548431396, -1.9223132133483887, 0.07727006077766418, 0.227902352809906, 0.08277726173400879, -1.1202702522277832, -1.5567985773086548, -1.551163911819458, -0.6234747171401978, -0.4411680996417999, -0.19985482096672058, -0.3711455166339874], [-0.7824415564537048, -1.6422585248947144, 2.5993154048919678, 0.05718015134334564, 0.4582332372665405, 1.2032666206359863, 0.0885605663061142, -1.1686640977859497, 1.7059335708618164, 1.2852301597595215, 0.31693175435066223, 0.31542402505874634], [-0.18800324201583862, -0.36130061745643616, 0.8046544194221497, -1.7930755615234375, -0.04310837760567665, 0.7521300315856934, 1.00632643699646, -0.1904996931552887, -1.9714823961257935, -0.7015879154205322, 1.5441313982009888, 0.3399193286895752], [-0.7909557223320007, 0.14159806072711945, 0.8949047327041626, 1.7773663997650146, -0.14220833778381348, 1.9003552198410034, 1.7291975021362305, -0.6408853530883789, -0.6869363188743591, 0.573552131652832, 1.449476718902588, 0.4436380863189697], [-0.31539395451545715, -0.4516574740409851, 0.898047924041748, -1.5061346292495728, -0.8051354885101318, 0.5123804807662964, 0.44274193048477173, -0.8534837961196899, -0.7239694595336914, 0.5848538875579834, 0.2369958758354187, -0.8886044025421143], [-0.24444332718849182, 1.6065572500228882, 0.04670240357518196, 1.1543432474136353, -0.8103943467140198, 0.5820340514183044, -1.7584331035614014, -0.5085779428482056, -1.3432153463363647, 0.27668917179107666, 0.34630706906318665, -0.7582852840423584], [-1.322448492050171, -0.4178159534931183, -0.45100414752960205, 0.7862684726715088, -1.1376687288284302, 1.8902407884597778, -0.4169778823852539, -0.5076355934143066, -0.928314208984375, -1.4657026529312134, -0.6332789063453674, -0.5150274038314819], [0.262849360704422, -0.9648273587226868, 0.034701451659202576, 0.7683524489402771, -0.6928204894065857, 0.11162463575601578, -0.9165468811988831, 0.5644736886024475, 1.0754493474960327, -0.5302919745445251, 0.7496927976608276, -0.11879536509513855], [-0.8458802103996277, 1.1232794523239136, -0.51295405626297, 0.4303100109100342, -0.9100163578987122, 0.9746338725090027, 0.08507394045591354, 0.14745765924453735, -0.45031967759132385, 1.267920732498169, -2.059945821762085, -0.8685712218284607], [0.5803663730621338, 0.3599252700805664, -0.9096494317054749, -0.3566265106201172, 0.2388422191143036, -0.10482995212078094, 0.7359186410903931, -0.5616037845611572, 0.5900537371635437, -2.24172043800354, -1.210841178894043, -0.16160576045513153], [-0.23882797360420227, 0.20031322538852692, 0.8478516340255737, 1.4054203033447266, -0.8618510961532593, 1.9131624698638916, -0.03600392863154411, 1.034201741218567, 0.3448394238948822, -0.8861327171325684, 1.637640357017517, -0.20210254192352295], [-0.5429767370223999, 2.1825947761535645, -1.297103762626648, -0.8749426603317261, 0.17883673310279846, 0.466391921043396, 1.485277533531189, 1.0255159139633179, 0.11468441039323807, -0.47995880246162415, -0.8352425694465637, -0.30859866738319397], [-0.6642575263977051, 1.9639242887496948, -1.510667324066162, -0.5340332388877869, -2.9645841121673584, 0.8480066657066345, 2.32167649269104, 0.5212095379829407, 0.09818778932094574, -0.8900524973869324, -0.1966194361448288, -1.401686191558838], [2.454185962677002, 1.8602399826049805, -1.3090628385543823, 0.9726364612579346, 0.08117519319057465, -1.0497504472732544, 1.862297534942627, 0.5059078931808472, 0.2762613296508789, -1.8737586736679077, 0.05803898349404335, 0.2953876256942749], [0.12985053658485413, 0.565040647983551, -1.1326459646224976, 0.25167879462242126, 0.040123920887708664, 0.3959137499332428, 0.08870543539524078, -2.212247610092163, 1.080399990081787, 0.5769881010055542, 2.4615211486816406, 0.3282807171344757], [0.99660724401474, -0.6442208290100098, -0.3079875111579895, 0.6951759457588196, -0.9342545866966248, 1.0949361324310303, 0.6693251729011536, -0.8705970644950867, 0.9591834545135498, -1.0869461297988892, -0.8632537722587585, 1.647835612297058], [-0.3841932713985443, -0.16860271990299225, 0.21788784861564636, -0.48448777198791504, -0.8348943591117859, -0.5128478407859802, 0.7310994267463684, 0.9175521731376648, -0.7889443635940552, -1.9703516960144043, 1.623872995376587, -1.0516308546066284], [-0.3741477131843567, -0.8059104681015015, -0.26185691356658936, 2.164280414581299, -1.360975980758667, -1.565787434577942, -0.0017412776360288262, -0.1610979586839676, 0.15548638999462128, -2.777894973754883, 0.9998339414596558, -0.9270153641700745], [-2.305428981781006, -0.45439642667770386, -0.1235198900103569, -0.7653759121894836, 1.4119880199432373, 0.7484306693077087, -0.1766102910041809, -0.06683993339538574, -1.2217637300491333, 0.044901568442583084, 1.2196515798568726, -1.6613069772720337], [-0.38012492656707764, 1.201836109161377, 1.0367149114608765, -0.007393176201730967, 1.4824384450912476, -0.22844044864177704, 1.2886279821395874, -0.4059827923774719, -0.2094668596982956, -0.4567304849624634, -1.1104673147201538, -0.8318580985069275]], "pos_embed": [[-0.7973410487174988, 1.9262861013412476, 0.8923471570014954, 0.37355026602745056, 0.47599637508392334, 0.23410172760486603, 1.4005467891693115, -0.7692289352416992, -0.6966426968574524, -0.7332063317298889, -0.35977616906166077, 1.1523350477218628], [-0.48221930861473083, 0.7126297950744629, 0.07070301473140717, -0.48121437430381775, 0.033848837018013, 1.7543104887008667, -0.2206055074930191, 0.9988974332809448, 0.07632289826869965, 0.5332992672920227, 0.5639004111289978, 1.5007725954055786], [1.3306939601898193, 0.4350985288619995, -0.31469300389289856, 1.3488558530807495, -0.9404387474060059, -0.14183032512664795, 1.295992374420166, -0.19366559386253357, -0.875817596912384, -0.9118560552597046, 0.09044190496206284, -0.40122535824775696]], "kv_proj_weight": [[0.2096029818058014, -0.22687844932079315, -0.1294194608926773, -0.236153706908226, -0.2318112999200821, 0.27685949206352234, -0.07177508622407913, 0.025458408519625664, 0.045648522675037384, 0.2941277325153351, -0.20634423196315765, 0.13947293162345886], [0.17895224690437317, -0.3043440580368042, 0.001640598988160491, -0.3058270812034607, 0.08272278308868408, -0.07690881937742233, -0.12640339136123657, -0.13924911618232727, -0.1613704115152359, -0.14138522744178772, 0.1861526072025299, -0.01004333607852459], [0.1861201524734497, -0.1021626815199852, -0.3013778626918793, 0.29591184854507446, -0.13074864447116852, -0.17559200525283813, 0.3220875561237335, 0.16313157975673676, -0.3262786567211151, -0.2910268008708954, 0.01064594928175211, 0.3021305203437805], [0.2156291902065277, 0.10535889863967896, -0.21444949507713318, 0.28722551465034485, 0.0018097652355208993, 0.2669332027435303, 0.10990176349878311, 0.26666945219039917, -0.25207412242889404, 0.22617480158805847, 0.010205474682152271, -0.2847323417663574], [-0.06064171716570854, -0.21599631011486053, -0.29014620184898376, 0.08399476855993271, -0.2531743049621582, 0.0698162168264389, -0.06631777435541153, 0.04149112105369568, -0.16800294816493988, 0.059247344732284546, 0.2902158498764038, 0.1838298738002777], [-0.12969686090946198, -0.1639309525489807, 0.2959112524986267, 0.010719690471887589, -0.13720500469207764, -0.1148008182644844, -0.16764774918556213, -0.17430153489112854, -0.2972829341888428, -0.0536855012178421, 0.023578615859150887, 0.24823196232318878], [0.07732746005058289, 0.16480086743831635, 0.14827322959899902, 0.12466629594564438, -0.25601860880851746, 0.2434396743774414, 0.23961599171161652, 0.06234857812523842, 0.18913708627223969, -0.20295681059360504, -0.10095121711492538, -0.25979170203208923], [-0.03484713286161423, -0.22388018667697906, -0.13686294853687286, 0.21199902892112732, 0.014632359147071838, -0.20095835626125336, -0.3626638352870941, 0.3440578281879425, -0.0799117460846901, 0.12562598288059235, -0.26734659075737, -0.11606177687644958], [0.2166406214237213, 0.004799035843461752, -0.3201565146446228, 0.05111744999885559, -0.2272283285856247, -0.07352472841739655, -0.03893767297267914, 0.1983756124973297, 0.4012531042098999, -0.0497797392308712, 0.14799219369888306, -0.1365753710269928], [0.1189526915550232, -0.1397191882133484, 0.0191601924598217, -0.24871590733528137, 0.11747854202985764, 0.02137465588748455, -0.30811598896980286, 0.2525748312473297, 0.0021835158113390207, 0.20680834352970123, 0.24177607893943787, 0.3126923739910126], [0.14217178523540497, -0.12734806537628174, 0.2554738223552704, -0.0036694849841296673, -0.2815915048122406, 0.025920171290636063, -0.19427713751792908, 0.10008076578378677, -0.10710064321756363, 0.16655665636062622, -0.2735119163990021, -0.10456717759370804], [0.24055756628513336, 0.37477216124534607, -0.2216801643371582, -0.2310301661491394, 0.03771789371967316, 0.0928337499499321, 0.0018837085226550698, -0.14031162858009338, 0.1607068032026291, -0.3200150728225708, -0.11451716721057892, -0.053106434643268585], [-0.1819450557231903, 0.153166726231575, -0.053457919508218765, -0.03442415967583656, 0.05320245027542114, 0.37444478273391724, 0.1382175236940384, 0.20194700360298157, -0.17869852483272552, -0.21439653635025024, -0.15711915493011475, 0.279752254486084], [0.022644130513072014, 0.007833071984350681, 0.18942156434059143, -0.09055560827255249, 0.09200749546289444, 0.33110833168029785, 0.1250719428062439, 0.10694979131221771, 0.3086708188056946, 0.08602239936590195, -0.3850592076778412, 0.02817472256720066], [-0.14857026934623718, 0.11522538959980011, 0.012891008518636227, 0.2215059995651245, -0.22791995108127594, -0.3171939551830292, 0.048491694033145905, -0.25394001603126526, 0.2089518904685974, -0.23895761370658875, 0.1396741271018982, 0.01056931633502245], [0.1103617399930954, -0.09319858998060226, 0.03944794088602066, 0.05396551266312599, -0.034368764609098434, 0.19906170666217804, 0.14850881695747375, 0.22648721933364868, 0.08429861813783646, -0.12028535455465317, 0.33119645714759827, -0.04953012242913246], [-0.3764932453632355, -0.285356342792511, -0.13434889912605286, 0.1422051340341568, -0.034507326781749725, -0.02945929951965809, -0.2883042097091675, 0.2294321060180664, 0.3323521316051483, -0.16226838529109955, -0.18228279054164886, 0.2952868938446045], [-0.25990694761276245, 0.11916104704141617, -0.18374741077423096, -0.1274893432855606, 0.24015091359615326, -0.03005060739815235, -0.20857630670070648, 0.16900482773780823, -0.15329580008983612, -0.0814460813999176, 0.0476129911839962, -0.09523987025022507], [-0.1364234983921051, -0.21830643713474274, 0.23432694375514984, -0.24195672571659088, 0.2542540729045868, 0.2716003358364105, 0.25276002287864685, -0.23063546419143677, 0.10062199085950851, 0.06606783717870712, -0.1310592144727707, -0.05313938856124878], [0.2530743181705475, 0.24222317337989807, 0.21990782022476196, 0.06179068982601166, 0.3197275400161743, -0.15926554799079895, 0.2208206206560135, 0.2202737033367157, 0.04917244240641594, 0.33933502435684204, 0.2818523049354553, -0.1680089384317398], [-0.18772651255130768, 0.29948970675468445, -0.21967512369155884, -0.11518591642379761, 0.2112979143857956, -0.07259684056043625, 0.3867313265800476, -0.21233901381492615, -0.10632076114416122, 0.2593747079372406, 0.25546860694885254, 0.170551136136055], [0.07101424038410187, 0.05923585221171379, -0.10661650449037552, 0.004284773021936417, 0.2019832730293274, -0.17230989038944244, 0.234694242477417, -0.5238984227180481, -0.16946451365947723, 0.10779423266649246, 0.2959897518157959, 0.17915894091129303], [-0.1364295780658722, 0.04065839201211929, 0.023000061511993408, -0.33254101872444153, -0.1955825388431549, 0.17090578377246857, 0.10548815876245499, -0.01149943470954895, -0.23193389177322388, -0.2171972095966339, 0.1270204335451126, -0.05455251410603523], [-0.1593795120716095, -0.16468320786952972, 0.002744263270869851, -0.005539419129490852, 0.13645382225513458, -0.06449966132640839, -0.24131065607070923, 0.18665969371795654, 0.2004910260438919, 0.030830083414912224, 0.34943509101867676, 0.20729868113994598]], "kv_proj_bias": [-0.0330190435051918, 0.026959465816617012, 0.22764745354652405, 0.2307407706975937, 0.2741517722606659, 0.2398175299167633, -0.01649189554154873, -0.14281116425991058, -0.12571083009243011, -0.15897518396377563, 0.061122674494981766, -0.0756254568696022, -0.2683837115764618, -0.28261899948120117, 0.055738795548677444, 0.11087112128734589, 0.24687841534614563, -0.018757862970232964, -0.11046630889177322, -0.2513844072818756, 0.09896215796470642, 0.16604723036289215, -0.07136941701173782, 0.2530217170715332], "z_init": [0.32456815242767334, 0.22990910708904266, 0.1598387509584427, 0.014481589198112488, 0.10445774346590042, 0.26938527822494507, -0.11033429205417633, 0.2222055047750473, 0.2870727777481079, 0.12023402005434036, 0.19277967512607574, -0.06948992609977722], "pre_act_history_init": [[-0.006552812177687883, -0.18363192677497864, -0.2878756523132324, -0.24148637056350708], [0.15143491327762604, 0.06974662095308304, 0.2616957724094391, 0.16943924129009247], [-0.03512977808713913, 0.12631139159202576, 0.24208131432533264, 0.2177405208349228], [-0.10184631496667862, 0.14822347462177277, 0.0010166650172322989, 0.2838887572288513], [0.08387255668640137, 0.34831225872039795, -0.0751848816871643, -0.03319518640637398], [-0.20696009695529938, 0.30052465200424194, 0.2884894013404846, 0.2341051548719406], [0.026030797511339188, 0.12696821987628937, 0.2675766348838806, 0.3126862347126007], [-0.08739255368709564, -0.25508272647857666, -0.3946821987628937, -0.2750091850757599], [-0.017978481948375702, 0.20762130618095398, 0.3419085443019867, 0.022151494398713112], [-0.06407362222671509, 0.3056098520755768, 0.35931429266929626, 0.24686864018440247], [0.03269940987229347, -0.1679505854845047, -0.2811535894870758, -0.13166023790836334], [0.019299017265439034, -0.38354867696762085, -0.33682024478912354, -0.44306400418281555]], "synapse_0_weight": [[0.04856104776263237, 0.18672344088554382, -0.02401704713702202, 0.05147787183523178, 0.06456305831670761, -0.11531603336334229, 0.04383186250925064, -0.22281146049499512, -0.13477520644664764, 0.1181999146938324, 0.11459548026323318, 0.14400282502174377, 0.059961576014757156, -0.06063947081565857, 0.03129652887582779, -0.28080877661705017, -0.0336916483938694, 0.04145345464348793, 0.02881441079080105, -0.2905614376068115, 0.15146593749523163, -0.052099648863077164, 0.2046809196472168, 0.0612788088619709], [0.10124421864748001, 0.11246789246797562, 0.12247475981712341, -0.040698613971471786, -0.03684033825993538, -0.03164837509393692, 0.06659656763076782, -0.081740602850914, -0.031280986964702606, -0.07373405247926712, 0.14505627751350403, 0.05817883461713791, 0.0466998890042305, -0.17789483070373535, -0.18141670525074005, -0.013649748638272285, 0.13067813217639923, -0.05602514371275902, 0.19632212817668915, 0.16796807944774628, -0.2076021283864975, -0.02383933961391449, 0.09973818808794022, -0.18795520067214966], [-0.12220795452594757, 0.10862948000431061, 0.05366436019539833, -0.1452297419309616, 0.007729651406407356, 0.14416120946407318, -0.19010357558727264, 0.20866721868515015, -0.10771749168634415, -0.057434022426605225, -0.0334198996424675, 0.008295158855617046, -0.015176018700003624, -0.07927260547876358, 0.19623667001724243, -0.29456982016563416, -0.12007370591163635, -0.07365762442350388, 0.005025961436331272, -0.06402913480997086, -0.0766325443983078, 0.03285520523786545, -0.09068550914525986, -0.1541297435760498], [0.015209459699690342, -0.08113661408424377, -0.0418584980070591, -0.05493827536702156, 0.014628387056291103, -0.15481185913085938, -0.08292264491319656, 0.03209079056978226, 0.08085103332996368, 0.11767137050628662, -0.038102589547634125, 0.20773211121559143, 0.08023522794246674, -0.07703575491905212, -0.1453181952238083, -0.1290573626756668, 0.13385741412639618, -0.023727092891931534, -0.074419766664505, -0.3079835772514343, 0.10597091913223267, -0.1209428533911705, 0.2487819343805313, 0.11124911159276962], [-0.10046198219060898, -0.049727242439985275, -0.07079330831766129, -0.1981852650642395, 0.04429773986339569, 0.07423567026853561, -0.04291132465004921, -0.12071019411087036, -0.06258215010166168, 0.21966087818145752, -0.10983740538358688, -0.04872291162610054, 0.018331291154026985, -0.056869786232709885, -0.10015332698822021, 0.012863795273005962, -0.0677519142627716, 0.2532305121421814, -0.10627670586109161, 0.1361950933933258, 0.07699361443519592, 0.02192249521613121, 0.13319464027881622, -0.20798034965991974], [0.0859856903553009, -0.08840448409318924, 0.05599995702505112, 0.05668088421225548, 0.05805729329586029, 0.16585327684879303, -0.10635603964328766, 0.25449612736701965, 0.11801347136497498, -0.11818956583738327, -0.01486794650554657, 0.19565434753894806, -0.044060952961444855, 0.15755443274974823, 0.10674118995666504, 0.20781968533992767, 0.09698299318552017, 0.10922447592020035, -0.05483784154057503, -0.11997341364622116, 0.07624107599258423, 0.09945287555456161, -0.1183885708451271, -0.32416993379592896], [-0.03297999128699303, 0.15070143342018127, -0.03919561952352524, -0.10653926432132721, 0.17434081435203552, 0.0373113751411438, -0.07539871335029602, 0.022185426205396652, 0.1613026261329651, -0.08947520703077316, 0.0711439698934555, 0.004635090008378029, 0.14814050495624542, 0.12716007232666016, 0.02906479872763157, 0.1390838772058487, 0.0804789811372757, 0.06189225986599922, 0.04847385734319687, -0.17150385677814484, -0.036264143884181976, -0.027517927810549736, -0.014277066104114056, 0.016613243147730827], [-0.020923973992466927, 0.057877592742443085, -0.004206762183457613, -0.15614154934883118, -0.044934116303920746, -0.16617925465106964, 0.1504533439874649, -0.06720303744077682, -0.15694935619831085, 0.05575237423181534, 0.09172435849905014, 0.006456318777054548, 0.021279456093907356, -0.2629047930240631, -0.09998897463083267, -0.08797550946474075, -0.007151509169489145, -0.10052765905857086, -0.16889312863349915, 0.053681209683418274, -0.1270340383052826, -0.03766713663935661, -0.0049880268052220345, -0.14372043311595917], [0.13859237730503082, -0.1449231058359146, 0.024777822196483612, -0.04500006139278412, 0.10080499947071075, 0.015200577676296234, 0.05844050645828247, 0.2230718582868576, 0.054769061505794525, -0.038680627942085266, 0.08655679225921631, 0.024877851828932762, -0.04258212074637413, -0.03860243782401085, -0.18929457664489746, 0.1246333047747612, 0.19849561154842377, -0.061716075986623764, -0.04915816709399223, 0.22506654262542725, -0.2197878658771515, 0.019479088485240936, 0.10660646855831146, -0.24236953258514404], [0.011785983107984066, -0.1067894771695137, 0.1558229625225067, -0.03798780217766762, 0.28607648611068726, 0.042301639914512634, -0.05230028182268143, 0.14901135861873627, 0.08067867159843445, 0.010990533977746964, 0.04001878201961517, -0.013738837093114853, 0.003511146642267704, -0.22246651351451874, 0.027990063652396202, -0.05870522931218147, 0.02681684121489525, 0.10957334190607071, -0.17755603790283203, -0.10264991223812103, -0.06435294449329376, 0.04803481698036194, -0.19819697737693787, -0.1552051603794098], [0.004576073493808508, 0.14627203345298767, 0.08845717459917068, 0.12327349185943604, -0.11236041784286499, 0.10658556967973709, -0.12505944073200226, -0.1554226130247116, 0.15292522311210632, 0.22127093374729156, -0.08083508163690567, 0.12162020802497864, 0.09257916361093521, 0.08669838309288025, 0.060595106333494186, 0.14234277606010437, 0.07763754576444626, -0.2323383092880249, -0.12283666431903839, -0.08284337818622589, 0.18522541224956512, -0.03474145755171776, 0.21347887814044952, -0.10106682032346725], [0.01568523235619068, -0.13704948127269745, -0.010583551600575447, -0.06320323795080185, 0.10799962282180786, 0.1267298460006714, 0.15906395018100739, 0.1131044328212738, 0.061925217509269714, 0.0769512727856636, -0.09067090600728989, -0.06847536563873291, -0.10727609694004059, -0.21294774115085602, -0.31167304515838623, 0.15906940400600433, 0.06437741965055466, 0.01587098464369774, 0.010536114685237408, 0.10423385351896286, 0.12603315711021423, -0.1600743979215622, -0.2511955201625824, 0.10467524081468582], [-0.14200638234615326, 0.08885440975427628, -0.10091669857501984, 0.09923665970563889, -0.1473405659198761, 0.11796283721923828, 0.16633807122707367, 0.10894843935966492, 0.13557296991348267, 0.02748957835137844, -0.03560857102274895, 0.010457228869199753, -0.16523103415966034, 0.05213746428489685, 0.06293325126171112, 0.21799124777317047, 0.0913604125380516, 0.07823462039232254, -0.02708473615348339, -0.09230606257915497, 0.1429411917924881, -0.21233351528644562, -0.13032306730747223, -0.40846967697143555], [0.09008572995662689, -0.07365617156028748, 0.041534826159477234, 0.0029800168704241514, 0.15252994000911713, 0.06258249282836914, -0.06175718829035759, 0.20574595034122467, -0.03770299628376961, -0.16230426728725433, -0.08132554590702057, 0.12707974016666412, 0.08558280766010284, 0.06086578592658043, -0.043561723083257675, -0.1766635775566101, -0.026378052309155464, 0.02570701390504837, -0.1803564429283142, -0.053634025156497955, -0.11853916943073273, 0.13890725374221802, -0.28917598724365234, 0.02475854940712452], [-0.0038677933625876904, 0.16165600717067719, 0.044212017208337784, 0.057413045316934586, -0.15949417650699615, 0.1502486765384674, -0.09137074649333954, -0.12134406715631485, 0.15773586928844452, 0.12452510744333267, -0.04277493804693222, 0.06907539069652557, 0.09928916394710541, -0.011560100130736828, 0.17974324524402618, 0.19367170333862305, 0.15770110487937927, -0.05262545868754387, -0.18407943844795227, -0.029585296288132668, 0.21860894560813904, 0.011709054000675678, 0.09685380011796951, 0.070123091340065], [-0.09817284345626831, 0.14442189037799835, -0.02014538086950779, -0.18935810029506683, 0.2713387608528137, -0.011167757213115692, -0.0710151270031929, -0.1539938896894455, -0.10235059261322021, 0.04303395748138428, 0.019108202308416367, -0.026104716584086418, 0.19879452884197235, 0.03407806530594826, 0.22931765019893646, -0.05824759602546692, 0.06262555718421936, 0.04677907004952431, 0.024408655241131783, -0.013280357234179974, -0.08976837247610092, 0.1304847151041031, 0.1596817523241043, 0.023596500977873802], [-0.004423567559570074, -0.07695621997117996, 0.06513600796461105, -0.09626618027687073, -0.1293300986289978, 0.1407797783613205, 0.06695009022951126, 0.026108743622899055, -0.010608178563416004, 0.007008898537606001, 0.10137127339839935, 0.0824384093284607, 0.3092155456542969, 0.028725147247314453, -0.12414898723363876, 0.029204193502664566, 0.10345517843961716, -0.3385182023048401, -0.059608425945043564, -0.06557542830705643, -0.23969559371471405, -0.09069700539112091, 0.0038630592171102762, 0.10858877748250961], [-0.0017795298481360078, 0.13389943540096283, -0.0764520913362503, 0.10459424555301666, 0.08959609270095825, 0.14676932990550995, 0.19398270547389984, -0.03684254735708237, -0.005424562841653824, 0.1844833791255951, -0.048713624477386475, -0.12687267363071442, -0.13961170613765717, 0.03974679112434387, 0.08427799493074417, 0.12133461982011795, -0.2089683711528778, -0.07927844673395157, 0.06403348594903946, -0.1454964131116867, -0.1875990331172943, 0.17549553513526917, 0.046685051172971725, -0.36751604080200195], [-0.036586590111255646, -0.051712777465581894, -0.021597307175397873, 0.03679688274860382, -0.15174123644828796, 0.13529042899608612, -0.013938010670244694, 0.09012036770582199, 0.2279587686061859, 0.004395907279103994, -0.11813833564519882, 0.15761522948741913, 0.10859335958957672, -0.17333270609378815, -0.1528334617614746, 0.119998037815094, -0.13343296945095062, -0.12096559256315231, -0.03853744640946388, 0.0959242507815361, 0.2130955010652542, 0.1230643019080162, 0.2234189212322235, 0.12079693377017975], [-0.024431666359305382, 0.1878943145275116, 0.01207201648503542, -0.01952890120446682, 0.15430253744125366, 0.16100884974002838, -0.1502934992313385, -0.16496187448501587, -0.05835174024105072, -0.03467271849513054, -0.042872924357652664, 0.07742118835449219, -0.09224406629800797, -0.1683148741722107, -0.24942737817764282, -0.021173639222979546, -0.06489914655685425, -0.14746885001659393, 0.06973058730363846, 0.3128737211227417, -0.18879370391368866, -0.11683043837547302, -0.23892748355865479, 0.08468274772167206], [-0.02617398276925087, -0.0552605465054512, 0.024595333263278008, -0.15144555270671844, 0.006757325027137995, 0.13692492246627808, -0.08308348059654236, -0.09369903057813644, 0.13731810450553894, -0.04084020107984543, 0.16403158009052277, 0.10067210346460342, -0.1818964183330536, 0.03312596306204796, -0.133948415517807, 0.02218819409608841, 0.2751373052597046, 0.3856472969055176, -0.09308414906263351, 0.05108381435275078, -0.1662977933883667, 0.008932322263717651, 0.2601971924304962, -0.1447831243276596], [-0.057355280965566635, 0.10245898365974426, 0.1057499423623085, -0.08691491931676865, 0.12266146391630173, -0.09055409580469131, -0.10453178733587265, 0.16089250147342682, 0.1383369117975235, -0.026990758255124092, 0.15521803498268127, 0.05709138512611389, -0.20764973759651184, 0.18117094039916992, -0.19797047972679138, -0.15729033946990967, -0.018811676651239395, -0.1637442409992218, 0.17664660513401031, 0.23592574894428253, 0.20858001708984375, 0.4097941219806671, -0.053396161645650864, 0.13141973316669464], [-0.0920652225613594, -0.06210251525044441, -0.06524592638015747, -0.1700259894132614, -0.015440091490745544, -0.12000192701816559, 0.006752767600119114, -0.01673165149986744, 0.05851329490542412, 0.22970907390117645, -0.22366967797279358, -0.02212783321738243, 0.2606150507926941, 0.15622523427009583, 0.01881936378777027, 0.1591864824295044, 0.22482331097126007, 0.02221260592341423, -0.18340204656124115, 0.05396253615617752, -0.055819008499383926, -0.1356167495250702, 0.12106772512197495, 0.2033631056547165], [-0.05658581107854843, -0.1498803198337555, -0.00034963132929988205, -0.11200003325939178, 0.08828931301832199, 0.07556705921888351, 0.015886513516306877, 0.1685837209224701, 0.11744281649589539, 0.015555414371192455, -0.08007001876831055, -0.08541331440210342, -0.17314013838768005, -0.16964995861053467, 0.10466449707746506, 0.1596934050321579, 0.034343570470809937, 0.22920161485671997, 0.1779055893421173, -0.1123429611325264, -0.1094004288315773, -0.19936716556549072, -0.059638917446136475, 0.03592798113822937]], "synapse_0_bias": [0.03387623280286789, 0.05796626955270767, 0.05171676725149155, -0.09172849357128143, 0.15559911727905273, 0.051158443093299866, -0.08885759860277176, 0.10860969126224518, -0.10805538296699524, -0.12217146903276443, -0.11760500818490982, 0.10304741561412811, 0.06511686742305756, 0.12770944833755493, -0.08013349771499634, 0.17812566459178925, -0.034076396375894547, 0.21247534453868866, 0.10565590858459473, 0.2103503793478012, -0.08064290881156921, 0.17152391374111176, 0.09975804388523102, 0.1612742394208908], "synapse_1_weight": [1.4885213375091553, 1.4122267961502075, 1.5680874586105347, 1.4202924966812134, 1.3232409954071045, 1.4841666221618652, 1.3092880249023438, 1.2329086065292358, 1.411834478378296, 1.5345721244812012, 1.5112950801849365, 1.4411858320236206, 1.4089730978012085, 1.4201641082763672, 1.4914036989212036, 1.3719767332077026, 1.6266639232635498, 1.4417883157730103, 1.467404842376709, 1.410744547843933, 1.5432305335998535, 1.445244550704956, 1.501705288887024, 1.3814207315444946], "synapse_1_bias": [0.17856334149837494, 0.3148878514766693, 0.20420807600021362, 0.26044782996177673, -0.01749824732542038, 0.44804587960243225, 0.0584217794239521, 0.06627076864242554, 0.09885913133621216, 0.24616128206253052, 0.35440075397491455, 0.373287171125412, 0.24151580035686493, 0.3546654284000397, 0.28647899627685547, 0.21457110345363617, 0.22316519916057587, 0.3591272234916687, 0.2797132432460785, 0.3587934672832489, 0.14359688758850098, 0.3211723566055298, 0.1598324477672577, 0.23448613286018372], "synapse_3_weight": [[-0.11123599112033844, -0.4499903917312622, 0.43536287546157837, 0.15774144232273102, -0.11866488307714462, 0.2420496940612793, 0.3035348355770111, -0.1041516363620758, -0.5826816558837891, 0.3891872763633728, 0.2602143883705139, -0.5563715100288391, 0.08599931001663208, 0.23718638718128204, 0.13426633179187775, 0.5486279726028442, 0.6352037787437439, -0.07390424609184265, 0.10670078545808792, -0.44048088788986206, 0.005587239749729633, -0.326516717672348, 0.6365988254547119, -0.30844947695732117], [0.07510507851839066, 0.3744881749153137, -0.0959603562951088, -0.1269296556711197, -0.4084571897983551, 0.15453699231147766, 0.18873080611228943, -0.2218979448080063, -0.194767564535141, -0.21784499287605286, 0.04291548579931259, 0.4130875766277313, 0.2839125096797943, 0.4522225856781006, 0.03875207155942917, -0.2697969377040863, -0.14103096723556519, 0.20882059633731842, 0.35193154215812683, 0.43723011016845703, 0.016125265508890152, 0.4606940746307373, -0.2084183394908905, 0.2534570097923279], [-0.3962261974811554, -0.1768493503332138, 0.2636018395423889, -0.34116899967193604, -0.36496701836586, 0.26920285820961, 0.28515106439590454, -0.16741271317005157, -0.11516276746988297, 0.39488229155540466, 0.4058479368686676, -0.16562725603580475, -0.13254684209823608, 0.2712383270263672, 0.6095903515815735, 0.4028525650501251, 0.3210026025772095, 0.3159502446651459, 0.518393874168396, 0.2947239279747009, -0.4931461215019226, 0.30538052320480347, 0.4779711961746216, -0.3002675473690033], [-0.19884957373142242, 0.4718629717826843, 0.06559422612190247, -0.0003258073702454567, -0.05657102167606354, 0.15449564158916473, 0.254754900932312, -0.4531262218952179, 0.09478659182786942, -0.08981343358755112, -0.1610606163740158, 0.450851172208786, 0.33800753951072693, -0.29802992939949036, -0.31022417545318604, 0.14795583486557007, 0.09844443202018738, -0.016304295510053635, 0.06322553753852844, 0.3473968207836151, 0.2648354470729828, 0.4042285680770874, -0.4315333366394043, 0.4776286780834198], [-0.462247759103775, -0.1791180670261383, -0.13823285698890686, -0.22267429530620575, 0.07900678366422653, -0.2755056917667389, -0.10383902490139008, 0.13586410880088806, 0.5084191560745239, -0.5358999371528625, -0.39116570353507996, -0.1702076643705368, -0.44678938388824463, 0.03088553436100483, -0.18624216318130493, -0.2690233588218689, -0.1895987093448639, -0.36710160970687866, -0.3436432480812073, -0.22348909080028534, 0.10179134458303452, 0.007839125581085682, 0.13347524404525757, 0.1946132630109787], [0.16662420332431793, 0.07600593566894531, 0.44739094376564026, 0.10438275337219238, 0.6459079384803772, 0.13000492751598358, 0.32636505365371704, 0.20562075078487396, 0.09356065094470978, 0.1810937225818634, -0.09216852486133575, -0.030669664964079857, -0.030885860323905945, 0.08544271439313889, 0.32389894127845764, -0.01689482107758522, 0.19029051065444946, 0.037998877465724945, 0.3845466077327728, 0.3074095845222473, 0.42329126596450806, -0.08514324575662613, -0.08671922236680984, 0.309885174036026], [0.3153094947338104, -0.21721027791500092, -0.3508480191230774, 0.23241813480854034, -0.06485866755247116, 0.28305068612098694, -0.2905541658401489, 0.2717795968055725, 0.11256250739097595, 0.1678907871246338, 0.04989231750369072, 0.19320645928382874, 0.2803686261177063, 0.43600940704345703, -0.2389066368341446, -0.07751323282718658, -0.07768306136131287, 0.4330325722694397, 0.021007897332310677, 0.022416280582547188, -0.1361253559589386, 0.4847680926322937, -0.23774857819080353, 0.04209824278950691], [-0.042931776493787766, -0.07102661579847336, 0.1556462049484253, 0.04947662726044655, 0.20796439051628113, -0.4324640929698944, -0.03673750162124634, -0.2862304151058197, 0.02799849584698677, -0.311454176902771, 0.05595453828573227, -0.2601718008518219, -0.43549224734306335, -0.20913897454738617, 0.11293016374111176, 0.00158494315110147, 0.15613873302936554, -0.3405320644378662, 0.20568855106830597, 0.08545561879873276, 0.13797011971473694, -0.14024315774440765, -0.09993595629930496, -0.006502670701593161], [0.06502842158079147, 0.32126346230506897, -0.1529979109764099, 0.01194718200713396, -0.06743115186691284, 0.47281742095947266, 0.26756903529167175, 0.04388297349214554, 0.02752412110567093, 0.03806659206748009, 0.1845882534980774, 0.1587466597557068, 0.4156341552734375, -0.19284188747406006, 0.017733030021190643, -0.0041839065961539745, -0.46582290530204773, 0.22561030089855194, 0.22940601408481598, -0.08304862678050995, 0.13593478500843048, 0.001023656572215259, -0.4548240303993225, 0.14283430576324463], [0.47167396545410156, 0.19934743642807007, -0.3618839681148529, 0.43418222665786743, 0.05207941308617592, 0.2921963334083557, -0.28516173362731934, -0.11785996705293655, 0.06428251415491104, 0.2693224251270294, 0.5154545903205872, -0.03628963977098465, 0.21891739964485168, -0.13616251945495605, -0.06384292989969254, -0.21048569679260254, -0.23588503897190094, 0.4789770543575287, 0.01355194952338934, 0.21744130551815033, 0.13669022917747498, -0.300219863653183, -0.034843988716602325, 0.1925215870141983], [0.46394848823547363, -0.036609988659620285, -0.4230089783668518, 0.5427555441856384, -0.12722638249397278, -0.30067968368530273, -0.3078111708164215, 0.1285322606563568, 0.2589728832244873, -0.10847722738981247, 0.011291436851024628, -0.08091302216053009, -0.034955162554979324, -0.5236246585845947, 0.024904320016503334, -0.08704429864883423, 0.21916154026985168, -0.162553608417511, -0.17212778329849243, -0.3371257483959198, 0.31731685996055603, -0.2954137623310089, -0.12665800750255585, 0.27233895659446716], [-0.6112193465232849, 0.11337456107139587, 0.3174442946910858, -0.41790568828582764, -0.06189557909965515, -0.4472361207008362, 0.1517663449048996, -0.02659587375819683, 0.19558078050613403, -0.03966980427503586, -0.3877786099910736, -0.07798191159963608, -0.3917493224143982, -0.3116946816444397, -0.22066551446914673, -0.12382999062538147, -0.21250365674495697, -0.4944557845592499, -0.19680854678153992, -0.15647418797016144, 0.3368842899799347, 0.15369266271591187, 0.29735317826271057, -0.3128512501716614]], "synapse_3_bias": [-0.19870789349079132, 0.3134113550186157, 0.07982002943754196, 0.3716431260108948, -0.09894617646932602, 0.4060761630535126, 0.1430618017911911, -0.000994358561001718, 0.19738855957984924, 0.14925257861614227, 0.0017108711181208491, -0.1384887844324112], "nlm_w1": [[[0.1918714940547943, -0.5366822481155396, 0.10181861370801926, -0.3255402147769928, 0.4051547944545746, -0.31294718384742737], [0.22342832386493683, -0.24380744993686676, 0.31547150015830994, -0.32696089148521423, 0.14735950529575348, -0.4995892345905304], [0.4022440016269684, -0.2577558755874634, 0.2511442005634308, -0.4626167416572571, 0.39906546473503113, -0.4773835837841034], [0.6788620352745056, -0.526045024394989, 0.5243778824806213, -0.43655312061309814, 0.48379141092300415, -0.4824707806110382]], [[0.09194651246070862, -0.0907614603638649, -0.023434478789567947, 0.23106566071510315, 0.405158132314682, -0.12086082994937897], [0.28094133734703064, -0.2934904396533966, -0.0029637382831424475, 0.37060055136680603, 0.15904957056045532, -0.3403708040714264], [0.2386927306652069, -0.017369184643030167, 0.07226204872131348, 0.2440708875656128, 0.37067481875419617, -0.3341141939163208], [0.5650479793548584, 0.0019100969657301903, -0.12121205776929855, 0.43848443031311035, 0.4381832778453827, -0.25591811537742615]], [[-0.08842737227678299, -0.15135295689105988, 0.3139771521091461, 0.25103506445884705, 0.17310567200183868, -0.3578565716743469], [-0.20014938712120056, -0.18723320960998535, 0.20462068915367126, 0.307176798582077, 0.24915769696235657, -0.18725955486297607], [-0.2394603043794632, -0.3469741940498352, 0.4326196312904358, 0.3630487322807312, 0.341206431388855, -0.2814520001411438], [-0.437939316034317, -0.4844805598258972, 0.46499669551849365, 0.5098521113395691, 0.5019137859344482, -0.3053057789802551]], [[0.2357429414987564, 0.3687537908554077, 0.21590426564216614, -0.35451066493988037, 0.31446611881256104, 0.17888014018535614], [0.1634749174118042, 0.3468303382396698, 0.2792651653289795, -0.19949230551719666, 0.12683913111686707, 0.1450319141149521], [0.12310951948165894, 0.24716907739639282, 0.2768990695476532, -0.0757908895611763, 0.3827381730079651, 0.3693832457065582], [0.4002276062965393, 0.21031422913074493, 0.39579057693481445, 0.0781160518527031, 0.4194349944591522, 0.5210204720497131]], [[-0.26081952452659607, -0.08325214684009552, 0.10439477115869522, 0.28728270530700684, 0.16905522346496582, -0.15925149619579315], [-0.17448025941848755, -0.04639910161495209, 0.1675802767276764, -0.046904049813747406, -0.23182475566864014, -0.2312421053647995], [-0.3757884204387665, -0.1989118903875351, -0.12776125967502594, -0.2015952616930008, -0.3816746175289154, -0.26155638694763184], [-0.24272647500038147, -0.34443962574005127, 0.08356674760580063, 0.12809059023857117, -0.20019453763961792, -0.2993871569633484]], [[0.034833308309316635, 0.2604224383831024, 0.03365348279476166, -0.034494806081056595, 0.15980389714241028, -0.11322750151157379], [0.007575437892228365, 0.1411500871181488, 0.1986016035079956, 0.10673190653324127, 0.14757905900478363, 0.2455286979675293], [0.001255880226381123, 0.31687504053115845, 0.22499562799930573, -0.09839575737714767, 0.377738356590271, 0.33705389499664307], [-0.1601266711950302, 0.4382229149341583, 0.390811026096344, -0.015505095012485981, 0.39867714047431946, 0.3047199845314026]], [[0.40765973925590515, -0.022610468789935112, 0.3897923529148102, -0.37719640135765076, 0.34574201703071594, 0.2614890933036804], [0.2893933653831482, 0.1196640357375145, 0.2954806685447693, -0.25024861097335815, 0.34418731927871704, 0.3323313593864441], [0.3475842773914337, 0.029462985694408417, 0.5163459777832031, -0.18084247410297394, 0.34756240248680115, 0.2683406472206116], [0.46104010939598083, -0.2957801818847656, 0.41813862323760986, -0.37917208671569824, 0.4495130181312561, 0.38784897327423096]], [[0.051362574100494385, -0.259895920753479, -0.3372251093387604, 0.5326464176177979, -0.1954788863658905, -0.2860463857650757], [0.07109566777944565, -0.2017718255519867, -0.26930826902389526, 0.368565171957016, -0.33363184332847595, -0.4412003457546234], [0.3852732181549072, -0.39093253016471863, -0.323153555393219, 0.8390055298805237, -0.3188757598400116, -0.22231774032115936], [0.6554638743400574, -0.3504137098789215, -0.3105536103248596, 0.5151441693305969, -0.2445230782032013, -0.30629223585128784]], [[-0.05921065807342529, 0.3694198727607727, -0.2631283104419708, -0.21034708619117737, 0.27605754137039185, 0.1635020226240158], [-0.21506980061531067, 0.28501543402671814, -0.16384418308734894, -0.239521324634552, 0.29994797706604004, 0.25087159872055054], [-0.06875274330377579, 0.3097621500492096, -0.23342038691043854, -0.3306140601634979, 0.39835020899772644, 0.4082662761211395], [-0.35631728172302246, 0.30424395203590393, -0.44914430379867554, -0.4059325158596039, 0.2956434488296509, 0.22912128269672394]], [[0.1430700272321701, -0.20943371951580048, 0.5364969968795776, -0.04435865953564644, -0.06250689178705215, 0.28361770510673523], [0.323523610830307, -0.24005074799060822, 0.2793012857437134, -0.004036200698465109, -0.0014772351132705808, 0.22533711791038513], [0.29730692505836487, -0.3624733090400696, 0.31282898783683777, -0.12568075954914093, -0.032349590212106705, 0.35898733139038086], [0.6095530986785889, -0.43405264616012573, 0.3673414885997772, -0.4221196174621582, -0.3741581439971924, 0.5013756155967712]], [[0.1476496458053589, 0.3495630919933319, 0.14111925661563873, 0.18686409294605255, -0.24851559102535248, -0.19357825815677643], [0.17812994122505188, 0.21193432807922363, 0.4697363078594208, -0.0015127066290006042, -0.3897043466567993, -0.28091785311698914], [0.2908645570278168, 0.28423672914505005, 0.41133448481559753, 0.19990283250808716, -0.30109062790870667, -0.31748518347740173], [0.49522674083709717, 0.5022932291030884, 0.5486443638801575, 0.5447146892547607, -0.27866891026496887, -0.48466619849205017]], [[-0.32188206911087036, -0.31316840648651123, -0.15407593548297882, -0.2008890062570572, -0.27265143394470215, -0.16674992442131042], [-0.4388447403907776, -0.23042672872543335, -0.15418387949466705, -0.2737986743450165, -0.3187771141529083, 0.0071073309518396854], [-0.3564278185367584, -0.3860740661621094, -0.20707052946090698, -0.3803068995475769, -0.19064755737781525, 0.14649412035942078], [-0.47142428159713745, -0.40038880705833435, -0.5313347578048706, -0.38684168457984924, -0.56138676404953, 0.2496001273393631]]], "nlm_b1": [[0.39555349946022034, 0.326903760433197, 0.3256697952747345, 0.3160964250564575, 0.35075750946998596, 0.3168902099132538], [0.2272498905658722, 0.057996831834316254, -0.07816513627767563, 0.230789452791214, 0.22741267085075378, 0.251010000705719], [0.322866827249527, 0.31997108459472656, 0.2563459575176239, 0.265907883644104, 0.2744573950767517, 0.3017454743385315], [0.16199897229671478, 0.177373468875885, 0.18366943299770355, 0.08176960051059723, 0.16210098564624786, 0.21730421483516693], [0.2123187780380249, 0.24605073034763336, 0.07906755805015564, 0.08057453483343124, 0.23274348676204681, 0.23711487650871277], [-0.020581267774105072, 0.22960969805717468, 0.22230713069438934, 0.013339332304894924, 0.23005492985248566, 0.18016751110553741], [0.1859850287437439, 0.3644436299800873, 0.19273114204406738, 0.45065346360206604, 0.1881142407655716, 0.10368861258029938], [0.31239593029022217, 0.21956513822078705, 0.16641457378864288, 0.2673777639865875, 0.21971294283866882, 0.2149740308523178], [0.20297551155090332, 0.21692484617233276, 0.27901458740234375, 0.2800465524196625, 0.23579707741737366, 0.23513229191303253], [0.2356947511434555, 0.3009401559829712, 0.2405320256948471, 0.18421444296836853, 0.21044301986694336, 0.22461767494678497], [0.3320748805999756, 0.3158358335494995, 0.3258434534072876, 0.24220414459705353, 0.3096446692943573, 0.34162554144859314], [0.21505582332611084, 0.22231487929821014, 0.1945437490940094, 0.23037497699260712, 0.22114084661006927, 0.39155861735343933]], "nlm_w2": [[[-0.47319382429122925], [0.431080162525177], [-0.585096001625061], [0.5022991895675659], [-0.5073057413101196], [0.49788349866867065]], [[0.4452129304409027], [-0.2016908824443817], [0.20158828794956207], [0.38254210352897644], [0.4267536699771881], [-0.3046422004699707]], [[-0.42814862728118896], [-0.5307193398475647], [0.3861813545227051], [0.5966858863830566], [0.373414546251297], [-0.5455517172813416]], [[-0.31216996908187866], [-0.39815372228622437], [-0.4540373384952545], [-0.4707241654396057], [-0.274906188249588], [-0.3652879595756531]], [[0.26331767439842224], [0.33888956904411316], [-0.5196834206581116], [-0.5783171057701111], [0.37349453568458557], [0.31165775656700134]], [[-0.07390524446964264], [0.372440904378891], [0.38607943058013916], [-0.322558730840683], [0.34976357221603394], [0.2934044599533081]], [[0.4175148606300354], [-0.7147539854049683], [0.3546108603477478], [-0.45944690704345703], [0.4012421667575836], [0.30756875872612]], [[-0.6136619448661804], [0.33151260018348694], [0.27748143672943115], [-0.6783945560455322], [0.31557220220565796], [0.3375813066959381]], [[-0.4166453778743744], [0.5752492547035217], [-0.3962995409965515], [-0.3416486978530884], [0.323766827583313], [0.34872135519981384]], [[0.47114506363868713], [-0.3962092995643616], [0.3708888590335846], [-0.37325701117515564], [-0.572311282157898], [0.6494668126106262]], [[0.406615674495697], [0.4657380282878876], [0.3945026099681854], [0.46323803067207336], [-0.5428443551063538], [-0.41202878952026367]], [[0.32571542263031006], [0.4117213189601898], [0.4037134051322937], [0.41281184554100037], [0.4482901096343994], [-0.4335167407989502]]], "nlm_b2": [[0.1425636261701584], [0.19477494060993195], [0.13478130102157593], [-0.165479838848114], [0.20188380777835846], [0.19707494974136353], [0.13645903766155243], [0.18096433579921722], [0.17336779832839966], [0.18248507380485535], [-0.1939891129732132], [0.16055747866630554]], "decay": [0.3668151795864105, 0.06095277890563011, 0.38696926832199097, 0.23095738887786865, 0.23819060623645782, 0.20502735674381256, 0.2994198203086853, 0.2581713795661926, 0.10923280566930771, 0.352076917886734, 0.3780774176120758, 0.25409239530563354, 0.21425999701023102, 0.3272131085395813, 0.15279290080070496, 0.10343051701784134, 0.13576370477676392, 0.2264338582754135, 0.12247730046510696, 0.1652393788099289, 0.24829243123531342, 0.2524978816509247, 0.06905780732631683, 0.36714884638786316, 0.38273492455482483, 0.41363927721977234, 0.43455609679222107, 0.28176772594451904, 0.29262086749076843, 0.3559456765651703, 0.2620683014392853, 0.2965005040168762, 0.332589328289032, 0.26707589626312256, 0.1539081484079361, 0.13642732799053192, 0.21406333148479462, 0.1286584734916687, 0.08955749869346619, 0.3332836329936981, 0.21820878982543945, 0.0844494178891182, 0.11883130669593811, 0.10410561412572861, 0.1288141906261444, -0.0271905567497015, 0.05632482469081879, 0.15981058776378632, 0.3497465252876282, 0.042717449367046356, 0.18699103593826294, 0.0956396609544754, 0.10064265877008438, 0.12248041480779648, 0.2128649652004242, 0.18250301480293274, 0.021170085296034813, 0.17468757927417755, 0.1196172684431076, 0.1653139293193817, 0.22560758888721466, 0.21151408553123474, 0.16054897010326385, 0.192094087600708, 0.13160911202430725, 0.24379195272922516, 0.22367356717586517, 0.24236030876636505, 0.12656714022159576, 0.18938791751861572, 0.2063564956188202, 0.16472236812114716, 0.24967209994792938, 0.4093345105648041, 0.18422134220600128, 0.256584495306015, 0.33508169651031494, 0.3037284016609192], "q_proj_weight": [[0.08229190111160278, 0.09605265408754349, -0.06204954534769058, -0.061145082116127014, -0.02223510667681694, 0.06352199614048004, 0.0564848855137825, 0.05579057335853577, -0.06422620266675949, 0.0024309703148901463, -0.16474111378192902, -0.056285690516233444, 5.336640970199369e-05, 0.052308339625597, -0.059532281011343, 0.09743157774209976, -0.02167295105755329, 0.14876870810985565, 0.08758195489645004, 0.031177056953310966, -0.09689908474683762, 0.014104018919169903, -0.10058984160423279, -0.06407517939805984, -0.07580144703388214, -0.11545173823833466, -0.07418705523014069, -0.0028396937996149063, 0.06755147874355316, -0.06449008733034134, -0.10664989799261093, 0.09276530891656876, -0.11054788529872894, 0.16437354683876038, 0.0694107785820961, 0.05387413501739502, -0.1444195657968521, -0.07807084172964096, -0.014013830572366714, -0.04214860871434212, 0.14704377949237823, -0.04658464342355728, 0.07448872178792953, -0.11283125728368759, 0.0990171730518341, -0.059850022196769714, -0.00987937580794096, -0.08484936505556107, -0.044797632843256, -0.12183208763599396, -0.14465537667274475, -0.09969338029623032, -0.15091466903686523, -0.1721581369638443, -0.008645957335829735, -0.019094280898571014, 0.05930032581090927, 0.04650823771953583, 0.0276841651648283, 0.015813739970326424, -0.11003579199314117, -0.034428585320711136, -0.011681146919727325, -0.0801072046160698, 0.05529696121811867, -0.10620801895856857, -0.1514899581670761, -0.09756824374198914, -0.09121472388505936, 0.03549442067742348, -0.04662298411130905, 0.04527469724416733, -0.023347996175289154, -0.1289416402578354, -0.08615976572036743, 0.011611559428274632, -0.02793666161596775, -0.1531502604484558], [-0.021410511806607246, 0.005529832560569048, -0.1469877064228058, -0.04713490977883339, -0.12321100383996964, -0.2714320123195648, -0.05708763003349304, -0.1451079547405243, -0.1764107346534729, -0.11187063157558441, -0.09565425664186478, 0.047562599182128906, -0.10651428252458572, 0.055973347276449203, 0.1085851714015007, -0.14237354695796967, -0.09509823471307755, 0.027939192950725555, -0.2009497582912445, -0.044312965124845505, -0.12585365772247314, -0.09900304675102234, 0.013763351365923882, 0.008302252739667892, 0.12251517921686172, -0.03433631733059883, 0.007368885912001133, 0.09260965883731842, 0.011897158809006214, -0.10649996995925903, 0.005783909931778908, 0.12506026029586792, 0.06656130403280258, -0.06067145988345146, 0.016150467097759247, 0.05633096769452095, -0.06903776526451111, 0.1319396197795868, 0.04533263295888901, 0.05251316353678703, 0.06113545596599579, 0.12484092265367508, -0.14361171424388885, -0.12578506767749786, 0.014437723904848099, -0.0872977003455162, -0.06635107100009918, -0.12001307308673859, 0.024362986907362938, -0.06954716145992279, -0.08180839568376541, -0.011834071949124336, -0.14082080125808716, -0.09806719422340393, -0.12733881175518036, -0.03680993989109993, 0.06792443245649338, -0.07958994805812836, 0.039323434233665466, -0.09933426976203918, -0.07862500101327896, 0.059695228934288025, 0.0019374567782506347, -0.06904146820306778, -0.22733718156814575, -0.1179482489824295, -0.012801350094377995, 0.09950277209281921, -0.196957066655159, 0.024067647755146027, 0.02285819686949253, -0.001440442749299109, -0.0034559157211333513, 0.12153851240873337, 0.032974399626255035, -0.10080097615718842, 0.18010255694389343, -0.05493979528546333], [0.023851139470934868, 0.028528649359941483, 0.03844735398888588, -0.056945689022541046, 0.0739867240190506, 0.1696181446313858, -0.08029145747423172, 0.11175475269556046, 0.12306088209152222, 0.03043922781944275, 0.12648913264274597, -0.04186828434467316, 0.13242648541927338, -0.09932228922843933, -0.06666897237300873, -0.04446237161755562, 0.07289369404315948, -0.0817348062992096, -0.05280375853180885, 0.11893001198768616, 0.0008442330290563405, 0.015854978933930397, 0.0006136453012004495, -0.15646877884864807, 0.05397265776991844, 0.015107059851288795, -0.07708068937063217, -0.069607675075531, -0.11852380633354187, 0.009015614166855812, -0.04199959710240364, 0.14098519086837769, -0.12510666251182556, 0.07281623780727386, -0.1116681843996048, -0.0856042429804802, 0.021985379979014397, 0.0687868744134903, 0.04856216534972191, -0.06584099680185318, 0.013164002448320389, -0.11829351633787155, -0.03806168586015701, -0.12452167272567749, 0.06046069785952568, -0.001669810269959271, -0.01559597346931696, 0.05200221762061119, 0.03146021440625191, 0.07321248203516006, 0.08285856992006302, -0.07937242835760117, -0.05129722133278847, 0.12735511362552643, -0.04256201907992363, 0.1306825578212738, -0.04819018766283989, -0.11034169048070908, -0.12395511567592621, -0.04077799990773201, -0.08261984586715698, -0.06845445930957794, 0.09534814953804016, -0.05089876428246498, 0.04582635685801506, 0.01502277608960867, 0.14362619817256927, 0.02500154636800289, 0.11079417169094086, -0.001476762699894607, 0.021318968385457993, 0.04536120966076851, -0.08620687574148178, -0.0908142626285553, -0.06336140632629395, 0.12516294419765472, 0.015598791651427746, -0.08523440361022949], [0.17683210968971252, 0.10145919024944305, 0.17042694985866547, 0.09738003462553024, -0.04389844089746475, 0.17178568243980408, -0.17921730875968933, 0.19272620975971222, 0.1104537844657898, 0.01038696151226759, 0.12682874500751495, -0.2197897732257843, 0.0704348012804985, 0.22630088031291962, -0.0356019102036953, 0.18804897367954254, 0.16882072389125824, 0.04262556508183479, 0.07970397919416428, 0.09255342930555344, 0.12016751617193222, -0.07364170253276825, 0.11741575598716736, 0.02965804748237133, -0.12641917169094086, 0.11770664900541306, 0.1402137130498886, -0.008188290521502495, 0.12015201896429062, 0.010595165193080902, -0.0871768519282341, 0.06407876312732697, 0.01625191979110241, -0.036624275147914886, 0.042229440063238144, 0.12654121220111847, -0.07047641277313232, 0.06180191412568092, 0.03087593987584114, 0.05427815392613411, 0.26394161581993103, -0.1250835806131363, 0.06872527301311493, 0.05697382614016533, 0.08893481642007828, 0.03541169315576553, 0.10653942823410034, 0.0765003189444542, -0.14901567995548248, 0.06047022342681885, 0.051177188754081726, -0.1374640166759491, 0.12928201258182526, 0.03993212804198265, 0.007875457406044006, 0.060943353921175, -0.14352267980575562, -0.014665575698018074, 0.1604263186454773, 0.11639228463172913, -0.04447055608034134, -0.09089665114879608, 0.1441340446472168, 0.07051132619380951, 0.1641642302274704, 0.05991913750767708, 0.0806095227599144, 0.07957129180431366, 0.20864377915859222, 0.0006076621357351542, 0.1474512219429016, -0.11292681843042374, -0.11583003401756287, -0.14731884002685547, 0.022741062566637993, 0.06202177703380585, -0.23486219346523285, -0.03083913028240204], [-0.10332325100898743, -0.15747249126434326, 0.05974071845412254, 0.03218107298016548, 0.01991943269968033, -0.175197571516037, -0.03970029950141907, -0.03856103867292404, -0.15155494213104248, -0.11122363060712814, -0.13223938643932343, 0.10596337169408798, 0.09693800657987595, 0.1153566762804985, 0.0697762593626976, -0.020609909668564796, -0.04439619928598404, 0.08107321709394455, 0.11220987886190414, -0.056874435395002365, 0.005522130522876978, -0.1989053636789322, 0.1190464198589325, 0.04128088057041168, 0.05190563574433327, -0.05141950771212578, 0.0044512939639389515, 0.15080222487449646, -0.03968270123004913, 0.05706391483545303, -0.10953342914581299, -0.020412281155586243, -0.054526351392269135, 0.1152692437171936, 0.02643069624900818, -0.15866731107234955, 0.005116111133247614, -0.1262177675962448, -0.08086659759283066, 0.023403000086545944, 0.13853852450847626, -0.034628868103027344, -0.045518308877944946, 0.0005799980717711151, -0.05260493606328964, -0.013797417283058167, 0.06530863046646118, 0.012804953381419182, -0.08293035626411438, -0.04863804951310158, -0.16475257277488708, -0.0013645906001329422, -0.159573033452034, -0.08460166305303574, -0.04828228801488876, -0.09213779121637344, -0.009427400305867195, 0.13615520298480988, 0.10380424559116364, 0.003770363051444292, 0.01670031063258648, -0.1313779056072235, 0.021401019766926765, 0.09267307817935944, 0.10811100155115128, -0.0001329850492766127, -0.33472102880477905, 0.06401887536048889, 0.016958143562078476, -0.0878097265958786, -0.19818544387817383, -0.03783438354730606, -0.05520696938037872, -0.14514955878257751, -0.03532152250409126, 0.1722870171070099, -0.13325588405132294, -0.09477787464857101], [0.01744290255010128, -0.03594714403152466, -0.19835005700588226, -0.08881320059299469, -0.09028474986553192, -0.08102747052907944, 0.044057201594114304, -0.2492784708738327, -0.05425092950463295, -0.05452682077884674, 0.05607462301850319, -0.17154115438461304, -0.08702749013900757, -0.1107112467288971, -0.03484833985567093, -0.07023736834526062, -0.08808329701423645, -0.1430804282426834, -0.1620422899723053, -0.14266453683376312, -0.1105881780385971, -0.027015892788767815, -0.1263815313577652, 0.04429878666996956, 0.029675263911485672, -0.13801363110542297, -0.14199575781822205, -0.02459028922021389, -0.15201108157634735, -0.1672113537788391, -0.029621314257383347, -0.058466825634241104, 0.04208735004067421, -0.041993413120508194, 0.14199642837047577, 0.01555821392685175, 0.011510185897350311, -0.03939197212457657, -0.025785021483898163, 0.03661302104592323, -0.11462295055389404, 0.03445418179035187, 0.01171475276350975, -0.06766638904809952, -0.037254832684993744, -0.08615560084581375, -0.025573087856173515, -0.04382222145795822, 0.029291315004229546, -0.09203480929136276, -0.004550764802843332, 0.021872559562325478, -0.02021680399775505, -0.23211055994033813, -0.1654238998889923, -0.1600976437330246, 0.11020858585834503, -0.04674021527171135, 0.07908665388822556, -0.0019859669264405966, -0.06924320012331009, -0.0525645911693573, -0.08840011060237885, -0.058977238833904266, -0.2201412469148636, 0.05608820915222168, -0.1475258469581604, -0.046328168362379074, -0.16992834210395813, -0.018874749541282654, -0.17629671096801758, -0.0837196558713913, -0.10811194032430649, -0.06471290439367294, -0.16558319330215454, -0.18612538278102875, 0.011915803886950016, -0.11034907400608063], [-0.05105559155344963, -0.15029267966747284, -0.08823468536138535, -0.008116677403450012, -0.14973323047161102, -0.23510180413722992, -0.07363618910312653, -0.28344979882240295, -0.11430227756500244, -0.30964744091033936, -0.1070755273103714, -0.23439425230026245, 0.011166522279381752, 0.04840507358312607, -0.02591736614704132, -0.0020565276499837637, -0.07949785143136978, -0.034735433757305145, -0.15256854891777039, -0.05474240332841873, -0.1855473816394806, -0.066555455327034, -0.03886115178465843, 0.07783345133066177, -0.046466175466775894, 0.029846057295799255, 0.1305720955133438, 0.14301693439483643, -0.03483227640390396, 0.13186977803707123, -0.05008596554398537, -0.17901597917079926, 0.13296332955360413, -0.18184417486190796, 0.1300908774137497, 0.07430170476436615, 0.025868460536003113, 0.10196902602910995, -0.029288623481988907, 0.11514812707901001, 0.07800028473138809, 0.02930973842740059, -0.06084492802619934, -0.05253082513809204, -0.01756788231432438, -0.05698775127530098, -0.07181546092033386, -0.056500159204006195, 0.007944585755467415, -0.044662363827228546, -0.11971104145050049, -0.016015885397791862, -0.14767570793628693, -0.07921522110700607, -0.1894719898700714, -0.14372950792312622, -0.02366136573255062, -0.10421217232942581, 0.12617364525794983, 0.10656212270259857, -0.11153490841388702, 0.025371519848704338, -0.025596778839826584, -0.09753498435020447, -0.16213306784629822, 0.020307768136262894, -0.060011036694049835, -0.03077557310461998, -0.10488592088222504, 0.0702040046453476, -0.20421238243579865, 0.05180587247014046, -0.1161503717303276, 0.07325341552495956, 0.029575791209936142, -0.11216965317726135, -0.005569747183471918, -0.1309409886598587], [-0.23135733604431152, -0.13151539862155914, -0.032235514372587204, 0.05012881010770798, -0.040174659341573715, -0.13292065262794495, -0.07512649148702621, -0.05649866536259651, -0.11817639321088791, -0.06060688942670822, 0.12079603224992752, 0.02361014485359192, -0.089713454246521, 0.0036505358293652534, 0.09807450324296951, 0.04962846636772156, -0.011829918250441551, 0.017623739317059517, -0.04311802238225937, -0.05839351564645767, -0.0730929896235466, 0.02616783417761326, -0.06705338507890701, 0.15072299540042877, 0.052717503160238266, 0.07657919079065323, 0.025428734719753265, 0.0829940140247345, -0.05916754901409149, -0.05972160026431084, 0.010248659178614616, -0.2679913341999054, -0.0375499501824379, -0.14140094816684723, -0.0035885891411453485, 0.09409947693347931, 0.06034248694777489, 0.07383769005537033, 0.11302913725376129, 0.08589532971382141, -0.020354045554995537, 0.08377581089735031, -0.02517704851925373, 0.025513527914881706, -0.0693286657333374, -0.03480547294020653, -0.1245827004313469, 0.0004829068493563682, 0.05533235892653465, -0.08680741488933563, 0.042668696492910385, 0.0008631007513031363, 0.08014830201864243, -0.08539886772632599, -0.07537666708230972, -0.12483345717191696, -0.031110243871808052, 0.06959491968154907, 0.011110709048807621, 0.028387263417243958, 0.020679345354437828, 0.014783463440835476, 0.02569212019443512, 0.036227889358997345, -0.01483019720762968, -0.08322657644748688, -0.16599559783935547, -0.0014978150138631463, -0.08977910876274109, 0.050792768597602844, -0.0047006462700665, 0.07538570463657379, 0.01874033734202385, 0.10411106050014496, -0.0571020133793354, -0.023757269605994225, 0.006764481775462627, -0.1498226672410965], [0.0491788275539875, -0.028547484427690506, 0.05257245525717735, -0.014386211521923542, -0.0767522007226944, -0.07780373096466064, -0.01321705523878336, 0.05999487638473511, 0.04706607013940811, 0.1267426311969757, 0.20055222511291504, 0.0464872270822525, -0.02631600946187973, -0.022895345464348793, -0.05896512046456337, -0.05784185230731964, -0.0022234327625483274, 0.022988302633166313, 0.026023373007774353, -0.08399222046136856, 0.045063141733407974, 0.16457922756671906, 0.07626968622207642, -0.041808370500802994, 0.013274353928864002, -0.07640859484672546, -0.17458900809288025, -0.10197823494672775, 0.0061913738027215, -0.03105747513473034, -0.01859569363296032, 0.05627598240971565, -0.09844455868005753, -0.03904994949698448, 0.09400079399347305, 0.23852168023586273, 0.11472587287425995, 0.1411404311656952, 0.10322850942611694, 0.10186012834310532, -0.10960225015878677, 0.06916454434394836, -0.002257000654935837, -0.010096254758536816, 0.05494935065507889, -0.05623771622776985, -0.14018398523330688, 0.05123522877693176, 0.08924338221549988, -0.056784991174936295, -0.017456039786338806, -0.09262245893478394, 0.08597686886787415, 0.05426904931664467, -0.012036732397973537, 0.10442804545164108, -0.07658491283655167, -0.07144694775342941, -0.037283021956682205, -0.05106309428811073, 0.09986430406570435, 0.11576772481203079, -0.06194499135017395, -0.007227924186736345, 0.009037178941071033, 0.11924096941947937, 0.09771246463060379, -0.023065539076924324, -0.0029879494104534388, 0.11018339544534683, 0.08582524955272675, -0.1505020558834076, 0.1077762171626091, -0.023126449435949326, -0.03462008759379387, -0.03411487489938736, -0.056544385850429535, -0.006433108355849981], [0.14077968895435333, -0.01628093421459198, -0.0075434246100485325, 0.018832508474588394, 0.14336605370044708, 0.18005302548408508, -0.005856874864548445, -0.0009983348427340388, 0.15992125868797302, -0.062368810176849365, -0.025130126625299454, 0.10612233728170395, 0.056202612817287445, 0.07524477690458298, -0.1405726671218872, 0.009507035836577415, 0.03974626958370209, 0.08424185961484909, 0.1529444456100464, 0.038800518959760666, 0.06746698170900345, 0.07538367807865143, -0.0704435184597969, -0.024828117340803146, -0.058305952697992325, 0.06376907229423523, 0.08182431012392044, -0.023994389921426773, 0.11338372528553009, 0.02708749659359455, 0.05417472496628761, 0.030745036900043488, -0.05134379118680954, 0.11300823837518692, 0.010952724143862724, -0.007343091536313295, -0.12576407194137573, -0.08870034664869308, -0.0070072985254228115, -4.6486107748933136e-05, -0.030984433367848396, -0.03751947730779648, -0.06222398951649666, 0.05382775142788887, -0.072852224111557, 0.11862798780202866, 0.0748167335987091, -0.10267239809036255, -0.0389176607131958, 0.06733956933021545, 0.2084430605173111, 0.01189756765961647, 0.11619638651609421, 0.12816794216632843, 0.09235787391662598, -0.048015087842941284, 0.0344286672770977, 0.005981258116662502, 0.03423777222633362, -0.02316392958164215, -0.017436670139431953, -0.07795433700084686, 0.02765379101037979, 0.08990291506052017, 0.06237797439098358, -0.04270143061876297, -0.06982046365737915, -0.055174313485622406, 0.09848669171333313, -0.10608234256505966, 0.03792864456772804, 0.004095078445971012, -0.04999081790447235, 0.23098528385162354, -0.108828105032444, 0.05620909109711647, 0.06935277581214905, -0.0346941240131855], [-0.0352071113884449, -0.08580180257558823, -0.11025913059711456, 0.08427566289901733, -0.009380174800753593, -0.0925094485282898, -0.10124227404594421, -0.22660185396671295, -0.01905227266252041, -0.0988602265715599, 0.33269867300987244, -0.012854567728936672, -0.02964802086353302, -0.04930755868554115, 0.21281413733959198, 0.0643112063407898, 0.008428244851529598, -0.07025861740112305, -0.09634829312562943, 0.029943369328975677, -0.01761028543114662, 0.012176025658845901, 0.0011136078974232078, 0.07496898621320724, 0.08170146495103836, 0.08971016108989716, 0.10718648135662079, -0.0024917395785450935, 0.18739266693592072, -0.019310923293232918, 0.13958273828029633, 0.01861625909805298, 0.1353955715894699, -0.038816384971141815, 0.10634912550449371, 0.11650647968053818, -0.002916343044489622, 0.05965106934309006, -0.011483061127364635, 0.04479844123125076, -0.17823190987110138, -0.02679293043911457, 0.1840856373310089, 0.09030746668577194, 0.15073488652706146, 0.08046961575746536, 0.02074301801621914, 0.16496971249580383, 0.05401938781142235, 0.08595123887062073, 0.13770325481891632, -0.051232051104307175, 0.08780765533447266, 0.1645277589559555, -0.0036996437702327967, 0.008706577122211456, 0.13673558831214905, -0.054976362735033035, -0.02597639337182045, -0.007029296830296516, 0.05790889635682106, 0.14030106365680695, -0.04048183187842369, 0.15456275641918182, -0.0002152883098460734, 0.13943329453468323, -0.06421378999948502, 0.12182160466909409, 0.022842660546302795, 0.2193506509065628, -0.037344131618738174, 0.09739689528942108, 0.055929504334926605, 0.0016106866532936692, 0.19422036409378052, 0.07599717378616333, 0.007876398041844368, 0.126469686627388], [-0.10344848036766052, 0.041167642921209335, -0.1560169905424118, 0.04661627858877182, 0.005300967488437891, 0.015869881957769394, -0.17098407447338104, -0.09226120263338089, 0.01498735323548317, -0.024121319875121117, 0.07906211912631989, -0.23074397444725037, -0.0738411471247673, 0.08177994936704636, 0.06260444968938828, -0.11090457439422607, -0.01560085080564022, -0.0067254528403282166, -0.09351398795843124, -0.07909759134054184, -0.03572734072804451, -0.07340044528245926, -0.08596710115671158, -0.04828471317887306, -0.07683473825454712, 0.006626440677791834, -0.04283471778035164, -0.10599599033594131, 0.10451918840408325, 0.04042791947722435, 0.13300637900829315, 0.0028635000344365835, 0.1737479567527771, 0.03247591853141785, -0.08297183364629745, -0.043288033455610275, -0.0650768131017685, 0.09779306501150131, 0.005445755552500486, -0.04027875140309334, -0.04115385189652443, 0.08701255172491074, -0.03462499752640724, -0.050460077822208405, 0.08282206207513809, -0.01655791699886322, 0.11573610454797745, 0.10575011372566223, -0.07619822770357132, -0.031394366174936295, 0.09005661308765411, 0.03384515643119812, -0.02388518862426281, 0.06961920857429504, -0.03511637821793556, -0.07713055610656738, -0.0658142939209938, 0.00309441308490932, 0.04547728970646858, 0.020370077341794968, 0.03091622330248356, 0.10921210795640945, -0.00853066798299551, -0.057103533297777176, 0.10016536712646484, 0.023315327242016792, 0.0404660739004612, 0.03414612263441086, 0.015282940119504929, -0.022692028433084488, -0.023153822869062424, -0.009335104376077652, 0.08700968325138092, -0.13145065307617188, 0.044683296233415604, -0.1757323145866394, 0.016073351725935936, 0.07218471169471741]], "q_proj_bias": [-0.07124926149845123, -0.16783210635185242, 0.05331885814666748, 0.3108905255794525, -0.12852425873279572, -0.23496945202350616, -0.24628889560699463, -0.17689920961856842, 0.1338842362165451, -0.0053739529103040695, 0.07193265855312347, -0.07593357563018799], "attn_out_proj_weight": [[-0.3295307159423828, 0.06313763558864594, -0.025455623865127563, -0.010607248172163963, -0.34792616963386536, 0.18037572503089905, 0.18535259366035461, -0.1040499284863472, -0.011294689029455185, -0.06705909967422485, 0.3068463206291199, 0.057588595896959305], [-0.3011030852794647, 0.0030380517710000277, -0.024376416578888893, 0.33908674120903015, 0.033918596804142, 0.16723647713661194, -0.09689491242170334, -0.13078320026397705, 0.005167971830815077, -0.15356415510177612, 0.05100346729159355, 0.02587224170565605], [-0.11353592574596405, -0.13717396557331085, -0.04938077926635742, 0.021367527544498444, -0.30646592378616333, -0.23366951942443848, 0.03576179966330528, -0.2944858968257904, -0.1238628551363945, -0.10377427935600281, 0.012408719398081303, -0.05348049849271774], [-0.22429977357387543, -0.16148392856121063, -0.34900084137916565, -0.1017451286315918, -0.00764685682952404, -0.3542773723602295, 0.2279663234949112, -0.19822216033935547, -0.22296977043151855, 0.1780977100133896, -0.4481741786003113, 0.20678137242794037], [-0.0684654489159584, -0.09613721072673798, 0.3014926016330719, -0.054191954433918, 0.06443430483341217, 0.17349925637245178, -0.27926620841026306, -0.04223113879561424, 0.2235243320465088, 0.2833026349544525, -0.05518117919564247, 0.14365513622760773], [0.21552278101444244, 0.12449248135089874, 0.3669854998588562, 0.08654332160949707, 0.01075322087854147, 0.11679203063249588, -0.02679319679737091, -0.24488747119903564, -0.009324586018919945, 0.034979790449142456, 0.06591037660837173, -0.15933068096637726], [0.30019134283065796, 0.08382366597652435, 0.2708839178085327, -0.1394500732421875, -0.1807212084531784, -0.14207664132118225, 0.04407213255763054, 0.383297324180603, -0.20454943180084229, -0.13412697613239288, -0.09447667002677917, -0.09746209532022476], [0.05508899316191673, 0.23920617997646332, 0.2497948557138443, 0.05404289439320564, 0.004710775334388018, -0.2959432601928711, 0.04272254556417465, 0.3780512511730194, 0.28996601700782776, 0.021699218079447746, -0.3653068244457245, 0.3057972192764282], [0.01550536323338747, -0.12083908915519714, -0.1410544067621231, -0.035064298659563065, 0.10248371958732605, -0.34493526816368103, 0.09291741251945496, 0.20822443068027496, 0.14900745451450348, -0.09526453167200089, 0.18806834518909454, -0.4802967309951782], [-0.22356243431568146, 0.2294594645500183, -0.266040563583374, 0.19652967154979706, 0.11534342914819717, 0.08958590030670166, 0.0030962349846959114, 0.2920167148113251, 0.20770403742790222, -0.01254270225763321, 0.17402522265911102, -0.1707703024148941], [0.12198775261640549, -0.2945554852485657, -0.07149989902973175, -0.0016403311165049672, -0.19607515633106232, -0.256348192691803, 0.303081214427948, -0.15387849509716034, -0.13387945294380188, 0.30693042278289795, 0.2735314965248108, -0.21229876577854156], [-0.043748561292886734, 0.008741425350308418, 0.2198438197374344, 0.2061793953180313, -0.18357792496681213, -0.16395027935504913, 0.14705117046833038, 0.1365581899881363, 0.4016187787055969, -0.07999278604984283, 0.29628854990005493, -0.055444639176130295]], "attn_out_proj_bias": [0.11980371922254562, 0.20895081758499146, -0.20992296934127808, -0.10484389960765839, 0.04471644014120102, -0.017317580059170723, -0.01767212525010109, -0.15929687023162842, -0.006336366757750511, 0.17595304548740387, -0.23402640223503113, -0.09119084477424622], "output_proj_weight": [[-0.07870259881019592, -0.060326870530843735, -0.10483904182910919, 0.10492085665464401, -0.0993146151304245, -0.09472403675317764, -0.14209070801734924, -0.0251914095133543, -0.1580154299736023, -0.13527248799800873, 0.09641585499048233, -0.12690526247024536, -0.028421925380825996, -0.2313343733549118, 0.04483545571565628, -0.15187272429466248, -0.17607738077640533, -0.18717987835407257, -0.24045085906982422, -0.05132625624537468, -0.11725742369890213, 0.20372407138347626, -0.23142318427562714, -0.2974323034286499, 0.14722241461277008, -0.2415708750486374, -0.13727742433547974, -0.07653814554214478, -0.1195804551243782, -0.23221935331821442, -0.08229342848062515, 0.15393394231796265, -0.23672235012054443, -0.1884533315896988, 0.051352228969335556, 0.0645347461104393, 0.13717076182365417, 0.19553057849407196, 0.019750293344259262, 0.13392983376979828, -0.14229236543178558, 0.2012672871351242, -0.24830806255340576, -0.17408570647239685, -0.14009462296962738, -0.09826547652482986, -0.19488020241260529, -0.2749035656452179, 0.1763758659362793, -0.1721183806657791, -0.17880989611148834, -0.16897326707839966, -0.11386232823133469, -0.1783224493265152, -0.15917418897151947, 0.06313446909189224, -0.18065091967582703, -0.11485530436038971, -0.2154175341129303, -0.08677075803279877, -0.25691279768943787, 0.15692028403282166, -0.22868597507476807, -0.12177588790655136, -0.14027433097362518, -0.14411655068397522, 0.1498122662305832, -0.09930351376533508, -0.040537431836128235, -0.09602490812540054, -0.01127634011209011, -0.08664552867412567, -0.12244590371847153, 0.20610901713371277, -0.24127621948719025, -0.1250513345003128, 0.2268638014793396, -0.09931591153144836], [-0.14960741996765137, -0.13055546581745148, -0.010431281290948391, 0.04265398159623146, -0.08205380290746689, -0.14421293139457703, -0.04816514998674393, -0.19254159927368164, -0.20931825041770935, -0.03914720192551613, 0.1200193464756012, -0.11160549521446228, -0.17977812886238098, -0.22998979687690735, 0.061112210154533386, -0.2417495846748352, -0.2471800297498703, -0.023911310359835625, -0.033914435654878616, -0.12311749905347824, -0.09917765110731125, 0.07306946069002151, -0.20887990295886993, -0.23504887521266937, 0.13538376986980438, -0.2676064670085907, -0.17888082563877106, -0.14371153712272644, -0.12143993377685547, -0.17836160957813263, -0.21623538434505463, 0.21283185482025146, -0.23613065481185913, -0.2371019423007965, 0.18586647510528564, 0.0619807206094265, 0.19077375531196594, 0.02857660874724388, 0.026269052177667618, 0.14320509135723114, -0.19798927009105682, 0.2058882862329483, -0.19854536652565002, -0.21475161612033844, -0.2510537803173065, -0.06934894621372223, -0.19803425669670105, -0.07085839658975601, 0.1682494729757309, -0.2255224883556366, -0.25143641233444214, -0.05032029002904892, -0.23954612016677856, -0.199835866689682, -0.11100432276725769, 0.12591305375099182, -0.12290933728218079, -0.17102554440498352, -0.13353754580020905, -0.09474530071020126, -0.2256719321012497, 0.2288561314344406, -0.13370679318904877, -0.07857968658208847, -0.19105568528175354, -0.11531485617160797, 0.04794219881296158, -0.07719237357378006, -0.12920358777046204, -0.24272768199443817, 0.12623344361782074, -0.20437884330749512, -0.16876012086868286, 0.08442012965679169, -0.2743776738643646, -0.10073533654212952, 0.06110571324825287, -0.1310214102268219], [-0.1806079000234604, -0.09039965271949768, -0.048518236726522446, 0.02133255824446678, -0.014745502732694149, -0.03395825996994972, -0.004275117535144091, -0.027211112901568413, -0.22330361604690552, -0.2519368529319763, 0.03633671626448631, -0.06458178907632828, -0.10467405617237091, -0.20718802511692047, 0.1909203678369522, -0.061738502234220505, -0.12945331633090973, -0.2118362933397293, -0.23440560698509216, -0.1617816537618637, -0.20046626031398773, 0.1637558490037918, -0.16062334179878235, -0.10914037376642227, 0.1869078278541565, -0.287581205368042, -0.09386787563562393, -0.11401204764842987, -0.24619914591312408, -0.09780009835958481, -0.10694754123687744, 0.15730617940425873, -0.2132699340581894, -0.07843156903982162, 0.09352298080921173, 0.05298081412911415, 0.2524090111255646, 0.16269530355930328, 0.05598819628357887, 0.1403333991765976, -0.21045994758605957, 0.24741247296333313, -0.2736475169658661, -0.11286329478025436, -0.165711909532547, -0.1983940750360489, -0.11167294532060623, -0.06864883750677109, 0.10521858930587769, -0.2688441872596741, -0.11291242390871048, -0.07790441066026688, -0.15568910539150238, -0.12267036736011505, -0.1004398912191391, 0.11481623351573944, -0.1306866556406021, -0.22593066096305847, -0.12174392491579056, -0.04086613655090332, -0.2546689808368683, 0.16860425472259521, -0.24023647606372833, -0.07795799523591995, -0.20297926664352417, -0.21188141405582428, 0.13058224320411682, -0.10110501199960709, -0.14098584651947021, -0.26062801480293274, -0.02037542685866356, 0.0006052380194887519, -0.2587079405784607, 0.05837983265519142, -0.2586696445941925, -0.1570320725440979, 0.11988477408885956, -0.25024014711380005], [-0.026738064363598824, -0.008924020454287529, -0.03239716961979866, -0.14891773462295532, -0.09383902698755264, -0.02530873380601406, -0.039177633821964264, -0.04570956900715828, -0.03638003021478653, -0.032325323671102524, 0.1361827701330185, 0.06926148384809494, -0.1429213136434555, -0.20674967765808105, -0.01130717247724533, -0.07196138799190521, -0.03434670343995094, -0.21336272358894348, -0.085438072681427, -0.11051083356142044, -0.0334184467792511, 0.2954689562320709, -0.0346752405166626, -0.04699121415615082, 0.2525385320186615, -0.11390276253223419, -0.3781931400299072, -0.050274819135665894, -0.12070979177951813, -0.23506005108356476, -0.22263914346694946, 0.12793223559856415, -0.2620839476585388, 0.14373129606246948, -0.0296088345348835, -0.11560086905956268, 0.04042961075901985, 0.024581503123044968, -0.1572292447090149, -0.0039029184263199568, -0.24362927675247192, -0.06035628914833069, -0.015021568164229393, -0.0009383847936987877, -0.15776561200618744, -0.032617416232824326, -0.016272909939289093, -0.004443162586539984, 0.16110117733478546, -0.15179698169231415, 0.11312759667634964, -0.14174969494342804, 0.09186169505119324, 0.1071070209145546, 0.13551382720470428, 0.1187770664691925, 0.11631833761930466, -0.27151617407798767, -0.12391111999750137, -0.19599170982837677, -0.24275584518909454, 0.15315943956375122, -0.12503619492053986, -0.04521733522415161, -0.01516006514430046, -0.12100733071565628, 0.1795264631509781, -0.08905533701181412, -0.011624225415289402, 0.015176068991422653, 0.11789265275001526, 0.10606269538402557, -0.015696551650762558, 0.274042546749115, 0.0480661578476429, -0.04879326373338699, 0.11730078607797623, -0.14874596893787384], [0.0038354508578777313, -0.1568373590707779, 0.01657991297543049, 0.06487906724214554, -0.20234566926956177, -0.17031706869602203, 0.15861628949642181, -0.09696424752473831, -0.10707791149616241, -0.2930220663547516, -0.12513908743858337, -0.1816924661397934, -0.2050064653158188, -0.04970540106296539, 0.02066805586218834, -0.17991235852241516, -0.10662193596363068, -0.04095157980918884, -0.21836358308792114, -0.18838588893413544, -0.048537664115428925, 0.17769314348697662, -0.08042475581169128, -0.23010693490505219, -0.13344334065914154, -0.12311797589063644, 0.014328230172395706, -0.1837407946586609, -0.1392558217048645, -0.12753072381019592, 0.0034208749420940876, 0.2918572425842285, -0.04062703251838684, -0.17604318261146545, 0.011654967442154884, 0.13382746279239655, 0.05841702222824097, 0.07160353660583496, 0.034396421164274216, 0.05050589516758919, -0.17014208436012268, 0.06094839423894882, 0.014468577690422535, 0.008643653243780136, -0.24972929060459137, 0.01690848544239998, -0.11644499748945236, 0.057901013642549515, 0.20547035336494446, -0.04669706150889397, 0.05146246403455734, -0.23289892077445984, -0.16442883014678955, -0.2584083676338196, 0.06676394492387772, 0.12947368621826172, 0.10571130365133286, -0.2658144235610962, -0.18972234427928925, -0.2826193571090698, -0.1487407684326172, -0.15168508887290955, -0.2929110527038574, -0.18398462235927582, -0.07172779738903046, -0.1444288045167923, 0.09982330352067947, -0.10487515479326248, -0.13238272070884705, -0.17370782792568207, -0.14295600354671478, -0.1702633649110794, -0.021182939410209656, 0.21384602785110474, -0.15689094364643097, 0.0706946924328804, 0.2883372902870178, 0.008612428791821003], [0.10594908148050308, 0.12405570596456528, -0.1747269630432129, 0.15169811248779297, -0.22596682608127594, -0.2477417290210724, -0.1555664986371994, -0.023605119436979294, 0.03407321497797966, -0.11441291123628616, 0.03505827859044075, -0.19809570908546448, -0.19928644597530365, -0.19305281341075897, 0.28825825452804565, -0.232514426112175, -0.3141584098339081, -0.1042570099234581, -0.13998746871948242, 0.029284054413437843, -0.04092591628432274, 0.16917456686496735, -0.2910836935043335, 0.08445947617292404, 0.05886514484882355, 0.14505502581596375, -0.060243189334869385, -0.04592007026076317, -0.10157816112041473, -0.1472763866186142, -0.10331516712903976, 0.057516179978847504, -0.06221139058470726, -0.18620380759239197, 0.26133841276168823, 0.18579353392124176, 0.1534346342086792, 0.20596863329410553, 0.053784895688295364, 0.08865881711244583, -0.06969431042671204, 0.19906935095787048, 0.058594901114702225, 0.033760204911231995, -0.19233371317386627, -0.2341807335615158, -0.3341659605503082, -0.27128148078918457, -0.07046616822481155, -0.1500302255153656, -0.015432801097631454, -0.07977757602930069, -0.180091992020607, -0.1756274402141571, -0.256722092628479, -0.04808114469051361, -0.027332784608006477, -0.24631378054618835, -0.19278137385845184, -0.22915831208229065, -0.06747063994407654, 0.20055153965950012, -0.25504976511001587, -0.16383720934391022, -0.1634165644645691, -0.0528462789952755, 0.025023549795150757, -0.10700790584087372, -0.14037097990512848, -0.20733611285686493, 0.179096981883049, -0.289395272731781, -0.16008487343788147, 0.1771274358034134, -0.020771414041519165, -0.03225081413984299, 0.17881734669208527, -0.02667415887117386], [-0.053975507616996765, -0.284197062253952, -0.23042869567871094, 0.19554899632930756, -0.2382012903690338, -0.2642718255519867, -0.24218028783798218, -0.11453470587730408, -0.05441012233495712, 0.05501449108123779, 0.08081552386283875, -0.03422720357775688, -0.21618302166461945, 0.09773047268390656, 0.22949962317943573, -0.18124808371067047, -0.08215601742267609, -0.25107836723327637, -0.1183428093791008, -0.27336588501930237, -0.2005058079957962, -0.008227899670600891, 0.010715161450207233, 0.06890174746513367, -0.017368946224451065, 0.10120607912540436, 0.08646990358829498, -0.15919263660907745, -0.09868596494197845, -0.11355088651180267, -0.14690740406513214, -0.10595303773880005, 0.06925778836011887, -0.2254820615053177, 0.08892815560102463, 0.2051723748445511, 0.3576805889606476, 0.15501657128334045, 0.1777544766664505, 0.07485340535640717, -0.07958261668682098, 0.11746355891227722, -0.17090371251106262, -0.08506223559379578, -0.12154258787631989, -0.08815810829401016, -0.21261610090732574, -0.15824948251247406, 0.08764590322971344, -0.1037779375910759, -0.0535772368311882, -0.13428860902786255, 0.0021543283946812153, -0.263852596282959, -0.22669561207294464, -0.0704554095864296, -0.02356559783220291, -0.40094637870788574, -0.29241687059402466, -0.14445944130420685, -0.08579521626234055, 0.1603773534297943, -0.19897380471229553, -0.12716875970363617, -0.3054113984107971, -0.0929802656173706, 0.09429390728473663, 0.052099600434303284, 0.061409782618284225, -0.08612393587827682, 0.2120055854320526, -0.26439282298088074, -0.19319424033164978, 0.11902812868356705, -0.26721593737602234, -0.08104833960533142, 0.1072322353720665, -0.12817193567752838], [-0.13239039480686188, -0.2556851804256439, -0.13368014991283417, 0.2744048833847046, -0.20564091205596924, -0.277484267950058, -0.4066551625728607, -0.14628292620182037, -0.06394929438829422, -0.11305179446935654, 0.17056381702423096, -0.06407869607210159, -0.02952609397470951, -0.0573611743748188, 0.18703868985176086, -0.13331325352191925, 0.06608109176158905, 0.03436798229813576, -0.013097714632749557, -0.2896710932254791, -0.18283279240131378, -0.007808733265846968, -0.06260479241609573, 0.05351771041750908, 0.23844724893569946, -0.044759586453437805, -0.044569194316864014, 0.04883505776524544, 0.05963772535324097, -0.11974918842315674, -0.3878503441810608, -0.05774707347154617, -0.11685499548912048, 0.0629432201385498, 0.07365146279335022, -0.05591775104403496, 0.03291931748390198, 0.022337863221764565, 0.21168701350688934, 0.04153698682785034, -0.254170686006546, -0.10948069393634796, -0.19435788691043854, -0.05136532336473465, 0.03693057969212532, -0.04627665877342224, -0.28457504510879517, -0.1974509209394455, 0.12171375751495361, -0.1582144945859909, 0.1721094399690628, 0.27442502975463867, 0.0777825266122818, -0.12838275730609894, 0.0006725331768393517, 0.011445831507444382, 0.10834530740976334, -0.09980790317058563, 0.008456256240606308, -0.3043259382247925, -0.07749659568071365, 0.03169441223144531, 0.08623570948839188, -0.0881085991859436, -0.15964213013648987, -0.010782048106193542, -0.07539999485015869, 0.10446937382221222, -0.18349766731262207, -0.24645903706550598, 0.11064465343952179, -0.3221149742603302, -0.07837943732738495, 0.27391141653060913, 0.03414832055568695, 0.18097059428691864, 0.15941539406776428, -0.021164309233427048], [-0.017615636810660362, -0.13122648000717163, -0.30476197600364685, 0.08531102538108826, -0.043662670999765396, -0.05598895251750946, -0.015254885889589787, -0.3976080119609833, -0.01926725171506405, 0.04279040917754173, 0.11849075555801392, -0.14383822679519653, -0.1227937862277031, 0.09769663959741592, 0.057359401136636734, -0.09029658883810043, -0.10198692232370377, -0.09361381828784943, 0.050183363258838654, -0.2467747926712036, -0.1874380260705948, -0.004269655793905258, -0.2509889304637909, 0.1436558961868286, 0.06784703582525253, 0.00931887049227953, 0.11748221516609192, -0.10625635087490082, 0.22070519626140594, -0.14520074427127838, -0.23662610352039337, -0.21782729029655457, -0.12142553925514221, -0.08813827484846115, 0.23092758655548096, 0.07660417258739471, 0.08217009156942368, 0.05985323712229729, 0.2332967221736908, 0.20098485052585602, -0.11263880878686905, 0.13641318678855896, -0.13683457672595978, -0.15759730339050293, -0.20276571810245514, -0.030108708888292313, -0.14450427889823914, -0.1579533815383911, 0.12338679283857346, -0.13555970788002014, -0.08990184217691422, -0.05364057049155235, 0.07915332913398743, -0.176036074757576, -0.3275136947631836, -0.08046994358301163, -0.1155371442437172, -0.3336939215660095, -0.17859286069869995, -0.16003476083278656, -0.16850441694259644, 0.10107661783695221, -0.4446119964122772, 0.003967619966715574, -0.30542898178100586, -0.28792622685432434, -0.05587701499462128, -0.026727350428700447, -0.054436903446912766, -0.10410066694021225, 0.09925593435764313, -0.17071764171123505, -0.10352616757154465, 0.3120891749858856, -0.18170011043548584, 0.10052140802145004, 0.1813623160123825, -0.3125373423099518], [-0.019063852727413177, -0.1272490918636322, -0.1356336921453476, 0.03179628774523735, -0.20116153359413147, -0.19948413968086243, 0.16100390255451202, -0.3760213255882263, -0.1345822662115097, -0.15787874162197113, 0.2637469470500946, -0.1277756243944168, -0.35971277952194214, -0.04951990395784378, 0.357484370470047, -0.16656115651130676, -0.23751872777938843, -0.202365905046463, -0.13657529652118683, -0.0554378367960453, -0.2817002832889557, 0.10824369639158249, -0.33973851799964905, 0.22689616680145264, 0.20759396255016327, 0.13812655210494995, 0.05527384206652641, -0.15874412655830383, 0.16387559473514557, 0.030567597597837448, -0.07530845701694489, -0.18601764738559723, 0.09402769058942795, -0.3433907926082611, 0.28454291820526123, 0.3240217864513397, 0.30136021971702576, 0.1848089098930359, -0.0404953733086586, 0.14849546551704407, -0.23391394317150116, 0.34093183279037476, -0.005815862212330103, -0.0030625849030911922, -0.3635777235031128, 0.13999709486961365, 0.04856674745678902, -0.18718506395816803, -0.08864961564540863, 0.03040972165763378, -0.1713397055864334, -0.3702877461910248, 0.040324676781892776, 0.1115349754691124, -0.14496751129627228, -0.1565297245979309, 0.06148538738489151, -0.24637572467327118, -0.2840341329574585, -0.11255733668804169, -0.21628955006599426, 0.3720863163471222, -0.3019506335258484, 0.012060956098139286, -0.0951882153749466, -0.11643138527870178, -0.22282451391220093, 0.12337367236614227, -0.21417301893234253, -0.07560079544782639, 0.05350011959671974, -0.11791013181209564, -0.24080421030521393, -0.10268848389387131, -0.1249755471944809, 0.11365532130002975, -0.11030185967683792, -0.17186570167541504], [-0.1563059687614441, -0.12151666730642319, -0.20444674789905548, 0.30384722352027893, -0.11321260035037994, -0.1302223652601242, -0.04780739173293114, -0.17586234211921692, -0.4262871742248535, -0.3659983277320862, 0.06641340255737305, -0.23868423700332642, -0.1410204917192459, 0.0477248877286911, -0.0639074370265007, -0.08126922696828842, 0.018237050622701645, -0.2440635859966278, -0.1482968032360077, -0.14228495955467224, -0.1541304886341095, 0.09187092632055283, -0.02572951652109623, 0.17680217325687408, -0.1075630933046341, 0.07405226677656174, 0.015094410628080368, -0.23258483409881592, -0.002597570652142167, 0.15826253592967987, 0.22712095081806183, -0.07919064909219742, 0.06972970068454742, -0.006084199994802475, 0.013091479428112507, -0.06972184032201767, 0.16863469779491425, 0.06301569938659668, 0.22471272945404053, 0.1525244116783142, -0.04053409397602081, 0.06627480685710907, 0.10521464794874191, -0.04903363063931465, -0.22637939453125, 0.08320365846157074, -0.04555219039320946, -0.08961062133312225, 0.099913589656353, -0.11605390906333923, -0.01579161174595356, -0.38556089997291565, -0.0036749327555298805, -0.12275902926921844, -0.020711369812488556, -0.09376183152198792, 0.09356226027011871, -0.38345494866371155, -0.28819504380226135, -0.38657212257385254, -0.463053435087204, 0.1443740427494049, -0.4392969608306885, -0.04296114668250084, -0.19020912051200867, -0.2465522438287735, 0.08085975050926208, -0.1316443830728531, -0.34118539094924927, -0.2803668677806854, -0.09013663977384567, -0.0365586020052433, -0.20295129716396332, -0.07379429787397385, -0.08445535600185394, -0.0865590050816536, -0.08443033695220947, -0.09288769215345383], [-0.13290448486804962, -0.06090657040476799, -0.19814328849315643, 0.22095635533332825, -0.27369827032089233, -0.30290451645851135, -0.03330688923597336, 0.06782235950231552, -0.09149383753538132, -0.30880969762802124, 0.05646410211920738, -0.026529720053076744, -0.19013315439224243, -0.03868672251701355, 0.2494039237499237, -0.1541602462530136, -0.16739919781684875, -0.2409861981868744, -0.1074996069073677, -0.07363253086805344, -0.08464085310697556, 0.2959767282009125, -0.21856190264225006, 0.06402634084224701, -0.022524872794747353, 0.16092608869075775, 0.13090325891971588, -0.03631071373820305, -0.07624727487564087, 0.05575350299477577, 0.19546204805374146, -0.0007738537969999015, 0.035724226385354996, -0.32311344146728516, 0.1638215035200119, 0.2203599065542221, 0.19572757184505463, 0.27184590697288513, 0.2425277978181839, 0.23476022481918335, -0.05777427554130554, 0.12025892734527588, -0.007589247543364763, 0.12523885071277618, -0.2042359560728073, -0.014589578844606876, -0.04682048410177231, -0.03657836467027664, -0.04267314448952675, 0.08981739729642868, 0.03603178262710571, -0.11274512857198715, -0.1977425068616867, -0.03528619185090065, 0.10239653289318085, 0.11371403187513351, 0.06895895302295685, -0.29045534133911133, -0.11388149857521057, -0.06237015873193741, -0.12030187249183655, 0.0715079978108406, -0.19544923305511475, -0.048479288816452026, -0.08374699205160141, 0.018315430730581284, 0.14727821946144104, 0.005743889138102531, 0.003874036716297269, -0.0763695165514946, -0.025631265714764595, 0.03285087272524834, -0.14109782874584198, 0.019536564126610756, 0.0012936213752254844, -0.08165156841278076, 0.07773002982139587, 0.031924057751894], [0.012350979261100292, 0.081336610019207, -0.13940919935703278, -0.2038537859916687, 0.025682084262371063, 0.09449885785579681, 0.07612314820289612, -0.0506184846162796, 0.14702847599983215, 0.03430706635117531, 0.16175849735736847, -0.04710467904806137, -0.05610831826925278, -0.05456341803073883, -0.039748530834913254, 0.01879298686981201, 0.16148854792118073, -0.061380136758089066, 0.1284881830215454, 0.12325739860534668, -0.07053127884864807, -0.06080220639705658, -0.10436096042394638, 0.2521682679653168, 0.394782155752182, 0.07504276931285858, 0.10945473611354828, -0.05040338262915611, 0.001775926910340786, -0.0586705319583416, -0.034057147800922394, -0.13953280448913574, 0.19212035834789276, 0.046190906316041946, 0.08339545130729675, -0.1322438269853592, -0.15518531203269958, 0.011234606616199017, -0.07262890040874481, -0.15346495807170868, 0.04637238755822182, 0.007097195368260145, 0.0353999063372612, -0.026417119428515434, -0.0961657389998436, -0.07830313593149185, -0.13072878122329712, -0.1569562554359436, 0.047735270112752914, 0.11787182837724686, 0.1261695772409439, 0.005305128637701273, 0.05593668296933174, 